#include "hls_half.h"

typedef half data_type;
data_type kernel1_weight[11][11][1][64] = {-3.42492647e-02, 6.50934817e-04, -5.43897860e-02, 4.77917818e-03, 3.10321630e-04, -7.12438896e-02, 3.09925526e-03, -7.20069930e-02, 3.57642844e-02, -7.89808948e-03, 2.03884840e-02, -3.57010923e-02, -8.05014372e-02, 2.29590870e-02, 2.38034166e-02, -1.24216434e-02, 6.66395528e-03, -1.87575314e-02, -5.95030300e-02, -3.19191962e-02, -2.73241691e-04, 5.09472238e-03, -3.44128311e-02, -8.27535391e-02, -1.40988864e-02, -1.18989600e-02, -4.02638763e-02, 3.03800683e-02, 1.65153742e-02, 2.11076643e-02, 3.63197550e-02, -2.71069407e-02, -1.43800862e-02, 4.36144844e-02, 6.12551197e-02, -2.59621534e-02, -4.93732877e-02, -1.26030445e-02, 4.83205691e-02, -6.37777299e-02, -3.11070494e-02, -4.08099145e-02, -3.23995240e-02, -1.40862893e-02, -2.20856480e-02, 6.46469146e-02, -9.63231325e-02, -6.97237328e-02, -6.87390380e-03, -1.07789792e-01, 5.56598082e-02, 1.28879799e-02, 7.25010037e-02, 3.85352336e-02, -2.71861181e-02, -4.26988900e-02, -4.10281122e-02, -3.77882533e-02, -2.74099167e-02, -3.58757079e-02, 1.32370293e-02, -1.42488405e-01, 1.71266180e-02, -4.40544747e-02, -3.98350097e-02, -2.79937428e-03, 2.61676293e-02, -1.63028983e-03, -4.28336440e-03, -1.40822856e-02, -8.06995407e-02, -1.99564360e-02, 4.98471968e-02, 5.58904372e-02, -4.29187566e-02, -2.90884152e-02, -3.02935299e-02, 1.83809618e-03, -3.89380641e-02, 1.23499697e-02, 4.51779030e-02, 8.38751271e-02, 3.29146571e-02, -2.39814986e-02, -3.70951407e-02, 4.85830083e-02, 5.77327684e-02, -5.45033738e-02, -5.55813313e-03, 1.32834548e-02, 3.04355528e-02, -1.92981251e-02, 4.95423153e-02, -9.46850167e-04, 1.87818557e-02, 7.26215076e-04, -6.04637489e-02, -3.55623960e-02, 4.55049053e-03, -3.97244730e-04, 3.37405801e-02, 4.42927144e-02, 2.10347157e-02, -3.07034887e-02, 1.16334911e-02, 1.37159890e-02, -2.57472619e-02, -3.54805961e-02, -3.35864238e-02, -1.55474199e-03, 2.55494267e-02, -3.95248411e-03, 1.41970413e-02, -5.94259836e-02, 7.31100980e-03, 4.57757600e-02, 1.74103379e-02, 3.73938191e-03, -1.49830922e-01, 2.62229647e-02, -2.95121368e-04, -5.79436906e-02, -8.98663639e-05, 7.11416081e-03, 1.31278820e-02, -2.69726589e-02, 6.42263070e-02, -2.54676938e-02, 7.76173733e-03, -9.34820157e-03, 1.24717569e-02, -2.36651208e-02, 1.29151146e-03, -4.56566066e-02, 2.12479122e-02, -6.86133802e-02, -2.14325972e-02, -6.74207881e-02, 8.18285998e-03, -7.91440457e-02, 1.77209005e-02, -1.37328068e-02, -2.45303437e-02, 1.96663644e-02, -1.88735593e-02, -5.11767529e-02, 4.60321493e-02, 3.67521457e-02, -4.62632328e-02, 7.02759996e-02, -3.69876693e-03, 3.07564046e-02, -8.11851490e-03, -3.07323653e-02, 3.50407064e-02, -8.16721022e-02, 7.58688301e-02, -2.11960245e-02, -1.97754819e-02, 2.31266692e-02, -3.12255602e-02, 3.05767520e-03, -1.39525849e-02, 1.87615119e-03, 2.89227758e-02, 2.28195395e-02, 1.72810964e-02, -4.06167693e-02, -2.60410234e-02, -1.03919301e-03, -3.20130028e-02, -1.32900001e-02, -2.81427745e-02, -4.39427234e-02, -2.94391811e-02, 4.83341901e-05, -4.04644422e-02, -3.06061506e-02, 3.67084667e-02, 1.30463578e-02, -2.10583825e-02, -1.13663916e-02, -8.19445625e-02, -8.12778771e-02, 1.35177318e-02, 3.15907001e-02, 3.50265130e-02, 2.31456403e-02, 4.77758609e-02, 2.29812004e-02, -2.89806025e-03, 1.31008285e-03, -5.97031042e-03, -9.68584511e-03, 2.06973273e-02, 1.40479237e-01, -5.64594716e-02, 1.79108232e-02, 8.77657011e-02, 5.96468262e-02, 1.02389231e-01, 3.97763364e-02, 5.25745489e-02, -4.36763763e-02, -8.27426612e-02, -1.22509813e-02, -1.24423288e-01, -4.96342778e-02, 6.27964735e-02, -2.31836457e-02, -1.58858031e-01, 4.92242463e-02, -6.25320151e-02, -3.72455232e-02, 1.26433983e-01, -5.85666336e-02, 7.07946066e-03, 9.38120577e-03, 5.68839386e-02, -8.49705711e-02, -4.59645241e-02, -9.64627191e-02, -2.20018402e-02, 5.77930510e-02, -7.38477781e-02, -3.66831981e-02, 8.04080348e-03, 7.77276084e-02, 1.04572393e-01, 1.39923140e-01, 1.38372704e-02, -1.96809918e-02, 2.41267178e-02, -4.55207527e-02, -4.00395133e-02, 4.31939512e-02, -5.32924980e-02, -3.70511673e-02, 1.38237998e-02, 4.38857153e-02, 7.53701990e-03, 1.21345092e-02, -1.22861393e-01, -6.51768073e-02, -8.17859918e-02, 8.10515042e-03, 9.57163945e-02, -2.90900972e-02, 5.03177270e-02, 8.35170597e-02, 7.30778724e-02, 2.28233840e-02, -1.62185710e-02, 9.41464491e-03, 1.45239010e-01, 3.90372262e-03, 5.00341877e-02, -3.87065485e-02, 8.44443031e-03, 5.16555496e-02, -2.69270241e-02, 2.18515582e-02, -3.54300439e-02, 1.59097165e-02, 6.50022998e-02, 3.74523103e-02, 1.99166182e-02, -2.36128084e-02, -1.24457249e-04, 3.52612548e-02, 3.88449728e-02, -2.22433060e-02, 2.30022762e-02, -3.56546901e-02, 2.44611576e-02, -5.48810326e-02, -6.54951185e-02, -3.62953953e-02, 2.98430193e-02, -1.36512676e-02, 5.03557408e-03, 3.25478762e-02, 9.97997224e-02, -3.38720791e-02, -5.88678271e-02, 4.52813273e-03, -5.35818841e-03, 2.07151808e-02, -3.75433341e-02, 1.01529807e-02, 3.02020069e-02, 3.97218913e-02, 9.97439213e-03, 3.82868797e-02, 3.78984176e-02, -5.14791536e-05, -5.31713665e-02, 4.22990434e-02, -3.12317349e-02, -4.81879115e-02, -3.82957309e-02, -2.17752643e-02, -8.23898762e-02, 4.87297997e-02, 2.22219825e-02, -8.04903060e-02, -1.31471064e-02, -7.73907974e-02, -5.38584255e-02, 3.64925526e-02, -1.11249670e-01, -4.32134680e-02, 2.09240653e-02, 2.82034501e-02, -6.74411329e-03, -1.61058381e-02, 6.60764612e-03, -9.80197079e-03, 5.51794320e-02, 2.06587911e-02, -2.26106178e-02, -5.11836121e-03, 9.71504953e-03, 1.12740397e-02, -1.67793985e-02, 1.99559499e-02, -1.40474178e-02, 1.60906743e-02, -1.79323629e-02, 5.67070628e-03, 1.74428299e-02, -2.63135396e-02, -8.22273642e-02, -2.23051477e-02, -1.62138082e-02, -3.97498906e-02, -1.07658934e-02, 1.82188004e-02, -2.95460201e-03, 5.19890804e-04, -2.95633450e-02, -3.03671099e-02, 2.13003922e-02, -7.92501494e-02, -1.29999248e-02, -4.65766266e-02, -8.90554413e-02, 5.23763429e-03, 1.01618081e-01, -2.01206487e-02, -8.64084251e-03, -4.27415185e-02, -3.50218564e-02, -3.31065319e-02, 3.24881375e-02, 5.15178032e-03, 6.52495325e-02, 3.57985608e-02, -1.04910312e-02, 2.62399949e-02, -1.33574650e-01, 1.01876995e-02, -2.06522793e-02, 4.35053259e-02, -1.45296985e-02, 3.24298255e-02, 4.31357101e-02, 3.36025208e-02, -4.69877385e-03, 3.33961509e-02, 7.19555514e-03, -9.37290266e-02, -4.86861393e-02, -4.22210200e-03, 2.82570664e-02, 4.54231678e-03, 8.27848911e-03, 3.17129195e-02, 6.78918138e-02, 2.21109912e-02, 1.08087271e-01, -9.20655131e-02, 2.91518234e-02, 4.68525104e-02, 2.52645202e-02, -3.85692008e-02, -4.68452051e-02, 3.14049833e-02, 2.42185816e-02, -7.87163898e-02, -1.90483350e-02, -1.27307968e-02, 9.41239018e-03, -1.08076716e-02, -3.50704044e-02, -2.00658124e-02, 2.18054000e-02, -7.56307179e-03, -3.17773297e-02, -4.70069945e-02, 3.91479544e-02, -4.56582196e-02, -5.99167384e-02, -1.97088607e-02, -1.16349012e-02, 6.71757087e-02, -2.16788147e-02, 8.05476308e-02, -1.49680413e-02, -1.13144126e-02, 3.67970616e-02, -2.45883893e-02, -1.02710977e-01, -3.27418954e-03, 3.00851539e-02, -1.76339764e-02, 2.05102190e-02, 1.54085681e-02, 2.45211571e-02, -4.88924310e-02, -4.77813259e-02, -1.84160080e-02, -7.20879808e-03, -2.48084199e-02, 4.90282737e-02, -1.34451434e-01, -1.94615535e-02, -2.61666942e-02, -7.64849829e-03, 1.25366282e-02, -4.50425707e-02, -3.22990268e-02, -8.01337883e-02, -1.47221256e-02, 2.73824017e-03, -2.65450515e-02, 4.53352407e-02, 9.83920600e-03, 4.15715836e-02, -1.54537139e-02, -9.87610314e-03, -6.17141426e-02, -9.35007706e-02, -4.76703681e-02, 1.06633678e-02, -4.09201048e-02, -6.99052634e-03, -3.07077188e-02, -1.76552031e-02, -7.70380870e-02, -4.95319963e-02, -3.91339995e-02, 2.06953054e-03, -8.85219350e-02, -5.49186990e-02, -5.69170341e-02, 2.09295228e-02, -8.12752843e-02, -7.68491998e-02, 8.69368315e-02, -4.32331935e-02, 5.79363629e-02, 1.26617430e-02, -5.49894804e-03, 5.34487143e-03, -9.11732838e-02, -2.27474305e-03, 5.07431738e-02, 9.46518593e-03, 4.62218421e-03, -2.50893701e-02, -4.54564728e-02, -4.44938196e-04, -3.09310555e-02, 4.83620949e-02, 6.49693236e-02, 8.92778933e-02, 5.63171282e-02, 8.64623338e-02, -3.31362672e-02, 2.90464405e-02, -3.01792994e-02, -2.83291414e-02, -5.22438362e-02, -3.54263037e-02, -7.92725012e-03, -1.70552209e-02, 2.40733810e-02, -1.52175024e-01, -1.43425912e-01, -1.83206853e-02, 1.86216645e-02, -6.34994404e-03, 3.53838839e-02, -9.86242443e-02, -8.86215791e-02, -5.51937558e-02, 4.70482036e-02, 2.84370165e-02, 4.71499516e-03, 4.31983061e-02, 1.94177758e-02, -6.97517842e-02, -1.15111224e-01, -8.46121833e-02, -7.53316060e-02, -7.98060521e-02, -2.86608990e-02, -5.09197302e-02, 3.95830832e-02, -4.73552682e-02, -7.20088780e-02, 5.98327070e-03, 4.77186330e-02, -2.51115281e-02, -1.82239451e-02, -6.56184042e-04, 2.54442915e-02, -6.08447343e-02, 2.87879687e-02, -4.19546850e-03, -1.60967018e-02, 1.58144124e-02, -4.38916162e-02, 4.30994667e-02, -1.98122095e-02, -4.04433832e-02, -4.17518131e-02, -3.19591276e-02, 4.30965684e-02, 3.08865029e-03, 5.78718027e-03, -1.50395725e-02, 1.22990767e-02, -9.60735884e-03, -8.53259563e-02, -1.95293147e-02, -2.70078592e-02, -8.65955129e-02, -1.85279950e-01, -2.58338545e-02, -1.61089539e-03, -7.98439384e-02, 9.63459071e-03, -4.59916592e-02, -9.68270674e-02, 1.87395476e-02, 3.12484298e-02, -6.70776377e-03, -2.08210927e-02, 3.51008140e-02, -3.48221473e-02, 4.79187705e-02, -5.58747351e-02, -3.69848795e-02, -1.04166001e-01, 1.92150555e-03, 3.55163775e-02, -3.75057682e-02, 4.60068733e-02, -7.40792975e-02, -1.77158825e-02, 2.77530160e-02, -9.04498436e-03, -2.68002320e-02, 4.91932370e-02, 1.14762008e-01, 6.58588856e-02, 1.51628032e-02, 3.62584516e-02, -1.63091868e-02, -2.69715022e-02, 4.21686843e-03, 4.26673442e-02, 1.65608246e-02, 4.70431633e-02, 5.80931501e-03, 5.48540205e-02, 6.18081093e-02, 3.20631079e-02, -3.54928114e-02, 2.53179614e-02, 8.19649771e-02, -3.50466222e-02, 5.13524711e-02, 1.45430658e-02, 5.81507804e-03, 1.57436840e-02, -1.90869458e-02, 2.48268601e-02, -4.50761765e-02, -2.73201559e-02, 2.59655602e-02, -2.72358302e-02, -7.40544572e-02, 4.25195917e-02, -3.51133011e-02, 2.36197229e-05, 6.65144101e-02, -9.16066952e-03, 1.24958192e-03, 1.50175095e-02, 1.15128197e-01, 8.07258859e-02, 1.68884583e-02, -4.65360656e-02, -3.68715562e-02, -1.95633825e-02, -1.23002939e-02, -2.74068583e-02, 1.65091436e-02, 4.62507494e-02, 1.18554667e-01, 5.67356013e-02, 1.71921775e-02, -1.36509109e-02, -1.55354008e-01, 8.18434581e-02, -1.96698904e-02, -5.77598512e-02, -1.87733900e-02, -8.25523585e-02, 3.95533293e-02, 3.26082781e-02, 1.30616575e-02, -1.18045405e-01, 1.79556757e-03, 1.89003665e-02, -4.94193425e-03, 7.95961693e-02, -1.42420945e-03, -6.79252520e-02, 2.96224914e-02, 3.86189334e-02, -5.04548028e-02, 3.94339822e-02, -5.85590899e-02, -7.89999515e-02, 7.73227215e-02, -3.14714350e-02, -5.56526035e-02, -4.36438136e-02, -7.29115168e-03, -2.53875796e-02, 4.04969789e-02, -3.75865120e-03, 5.11258747e-03, -2.78202984e-02, -2.37177722e-02, -5.76638989e-02, -3.68931554e-02, 4.60634679e-02, 5.81090637e-02, -3.09764836e-02, -1.90393832e-02, -4.93987575e-02, -4.14572656e-02, -5.03285825e-02, -1.92926556e-03, -8.62937197e-02, -2.10244954e-02, 6.61265403e-02, -7.05681220e-02, -2.55375099e-03, -1.35010583e-02, -3.77912000e-02, 1.92286745e-02, 4.66389693e-02, -3.91129851e-02, 3.08513027e-02, 7.58120269e-02, -9.02313590e-02, 3.89800966e-02, 6.27772836e-03, 3.73611152e-02, -6.69678524e-02, -5.91900237e-02, -5.05248494e-02, -3.09653170e-02, -2.50692908e-02, 2.39907894e-02, -1.27300099e-01, -1.27542578e-03, 1.48424730e-02, -1.12342751e-02, 5.02159707e-02, -1.78110469e-02, -1.20890783e-02, -3.73768550e-03, 1.05742328e-01, 2.49678362e-02, -3.25478278e-02, 1.94582865e-02, -4.55848835e-02, -6.61592558e-02, -4.64835055e-02, -6.11926317e-02, -4.07686532e-02, 1.90674178e-02, -6.83906302e-02, 2.33528242e-02, 2.66795512e-02, -2.06758007e-02, -3.24329697e-02, -5.46882451e-02, -4.12978604e-03, 4.06839512e-02, -3.44080944e-03, -9.03813168e-02, 2.89690048e-02, 5.64223155e-02, -1.00412555e-02, -6.31626099e-02, -7.24490359e-02, 2.63009896e-03, 1.31772524e-02, 7.32864998e-03, 1.60457492e-02, 2.36220788e-02, 1.82413403e-02, 2.05688998e-02, -2.31242217e-02, 2.79067829e-02, 1.85873616e-03, -3.29624489e-02, -3.89072932e-02, 2.18868889e-02, 3.03995796e-02, 8.71219963e-04, 4.71750572e-02, 1.06726609e-01, 8.04589540e-02, -3.42646465e-02, -4.34943922e-02, -6.13037273e-02, 2.10270584e-02, -6.37535751e-03, 1.99448820e-02, 1.08313775e-02, -1.03672303e-03, 4.72087935e-02, 1.86036825e-02, -8.43896866e-02, -1.18150087e-02, 7.52970651e-02, 5.59600815e-02, -1.97255574e-02, -4.07810137e-02, -2.50439253e-02, -6.93789274e-02, 6.08096384e-02, -1.29312300e-03, 1.00489939e-03, 1.74912602e-01, -6.95583373e-02, -2.91927699e-02, -1.28180301e-02, -6.72845244e-02, 5.11462614e-02, -1.05347537e-01, 3.55681889e-02, 5.28093334e-03, 6.15359358e-02, -2.57090498e-02, -1.03345290e-01, 9.34226960e-02, 1.88405011e-02, -3.19494889e-03, -8.09777305e-02, 2.00124737e-02, -3.16696912e-02, -1.02256231e-01, 4.90255281e-02, 6.10615574e-02, -3.92830139e-03, 1.98680144e-02, -5.41035347e-02, 1.18746626e-04, -4.51932512e-02, 1.63528658e-02, 2.39947513e-02, 7.36201508e-03, 2.65762433e-02, -9.83002409e-03, -8.58733281e-02, -4.27790917e-02, -5.34542948e-02, 1.71456952e-02, 5.48514985e-02, -7.53369033e-02, -4.62749489e-02, 2.09646441e-05, -1.91508755e-02, -3.02982070e-02, -9.51729491e-02, -1.47421792e-01, -2.42459998e-02, 5.98293990e-02, 2.77984068e-02, 1.40286069e-02, 9.99639630e-02, 3.71471010e-02, -7.92402250e-04, -7.05239177e-02, 4.47480530e-02, -4.94994409e-02, 3.85224298e-02, 5.63042089e-02, -5.26782833e-02, 4.12137108e-03, 4.81164195e-02, -8.37775785e-03, 4.59076874e-02, 7.56470785e-02, 9.22401901e-03, -1.20725259e-02, 4.99114674e-03, 3.16128917e-02, 2.71550622e-02, 2.46203858e-02, 9.66451596e-03, -3.38943824e-02, -2.17894316e-02, -1.62872635e-02, -2.88635381e-02, -6.07121885e-02, 3.30207534e-02, -7.31174368e-03, 3.46541591e-02, -8.20074230e-02, -1.13142587e-01, 3.09571940e-02, -3.37653048e-02, 5.15875816e-02, -3.17694843e-02, 7.47388303e-02, 6.01915792e-02, -1.11416411e-02, -2.75509022e-02, 3.86678032e-03, 1.14961816e-02, -7.80194998e-02, -1.00153923e-01, 2.91138925e-02, -9.91039127e-02, 1.73101816e-02, -4.52148020e-02, -6.07047742e-03, -4.64734174e-02, -5.08309864e-02, 6.53217584e-02, 2.42310930e-02, 6.05563484e-02, -4.16758321e-02, -3.14734913e-02, 7.59521276e-02, -4.78870422e-03, -5.62149398e-02, -1.23480260e-01, 9.21629556e-03, -1.69177428e-02, 1.91320367e-02, 9.23885405e-03, 6.02371467e-04, 7.60951117e-02, 1.19695896e-02, 2.50912569e-02, -3.75002883e-02, -1.17985599e-01, 2.76744273e-02, -3.19674946e-02, 8.44937563e-02, 7.57201165e-02, 3.47011834e-02, 6.47115484e-02, -6.97213635e-02, 5.20174764e-02, 6.87534437e-02, -6.84752390e-02, -8.34668204e-02, -2.17652693e-02, -1.76970251e-02, 1.65748410e-02, 2.01827716e-02, -1.03544846e-01, -1.13156354e-02, 5.29202893e-02, -6.99634403e-02, 6.62748516e-02, 1.20028574e-02, -1.22748539e-01, 3.66651639e-02, -2.41873674e-02, 1.56297479e-02, 2.21405700e-02, 6.41406188e-03, -4.05387655e-02, 8.24371167e-03, -2.37180032e-02, -6.64161295e-02, 5.61992191e-02, -7.83496946e-02, -7.41913542e-02, 9.25739668e-03, -5.49739413e-02, -8.45219642e-02, -8.66308883e-02, 3.12483925e-02, 4.50863056e-02, -5.09704426e-02, -2.54538469e-02, 2.46145707e-02, -2.33334210e-02, -4.56390111e-03, 6.87617362e-02, 4.62772548e-02, 5.98642267e-02, -3.84643339e-02, -4.83998358e-02, 5.66940606e-02, -5.39444620e-03, -7.03741685e-02, -6.30473793e-02, -8.93211514e-02, 3.79387401e-02, 5.61226606e-02, 5.68702854e-02, -8.91155228e-02, 7.75962099e-02, 8.93205926e-02, -5.52433543e-02, -9.46018323e-02, -8.80668610e-02, -6.68967366e-02, -8.21854360e-03, 5.76586127e-02, -1.26021102e-01, -2.79936250e-02, 6.29656836e-02, 7.32098753e-03, 6.26907349e-02, 3.98144424e-02, -6.73308298e-02, -6.44806176e-02, -1.52008645e-02, -1.07147276e-01, 5.43294176e-02, 2.83043459e-02, 1.19153606e-02, -9.06573795e-03, -9.34713557e-02, -1.35621093e-02, -2.47429851e-02, -6.08234331e-02, -3.27950955e-04, -2.50977427e-02, -8.73706955e-03, -3.51532027e-02, -1.17743798e-01, -4.62664701e-02, -6.85655698e-02, 8.20229724e-02, -2.55878773e-02, -3.84365134e-02, 7.48047158e-02, -7.45897507e-03, -8.73919204e-02, 1.80273261e-02, -3.40234786e-02, -1.03939295e-01, -1.03720784e-01, 2.11192761e-02, 1.36894931e-03, -2.76535098e-02, -1.34326458e-01, 2.01926697e-02, -3.94529168e-04, 8.64082873e-02, 7.11212633e-03, -2.32409611e-02, 7.71094710e-02, 6.66714739e-03, -5.41428104e-02, 4.34523710e-04, 4.73813061e-03, -1.12810604e-01, -1.46951079e-01, -9.01154354e-02, -9.81920287e-02, 5.47011718e-02, 4.11723703e-02, -6.13629259e-02, 7.54318833e-02, 2.18298752e-02, 2.77122911e-02, -5.64270243e-02, -7.38366023e-02, -4.38239500e-02, -2.19054800e-02, 4.91078980e-02, 3.72256190e-02, -1.40881985e-01, 6.88514486e-02, -5.76720759e-02, 8.37824717e-02, 6.43059984e-02, -4.40552272e-02, -5.94075061e-02, -1.58050969e-01, 1.25776008e-01, 6.72974363e-02, -2.60618366e-02, 1.47095928e-02, -7.12019876e-02, 8.20048824e-02, -7.47904778e-02, -9.63457301e-03, -3.78755853e-02, -8.13618973e-02, -3.88849899e-02, 5.75262308e-02, -1.22863032e-01, -3.35888378e-02, -2.20478196e-02, 3.55590926e-03, -2.83926900e-04, -1.38517916e-02, -1.43980114e-02, 5.87679148e-02, -4.99283597e-02, 1.76917352e-02, 3.75279561e-02, -1.56916287e-02, -2.45607365e-02, -6.22941740e-02, 2.43451982e-03, 1.16509005e-01, 4.00242731e-02, 2.68990127e-03, -3.42573680e-04, -5.57656531e-05, 2.21736841e-02, 7.56506398e-02, -1.65501330e-02, 3.82127613e-02, 1.58321708e-02, -2.55857091e-02, 9.12323892e-02, -1.64689757e-02, -1.96363069e-02, 7.83852767e-03, 4.46530282e-02, -1.45167619e-01, 3.26566212e-02, 2.74185762e-02, 2.25646771e-03, 3.00283320e-02, 2.54723113e-02, -6.18954599e-02, -2.60001197e-02, -5.45610636e-02, -5.54243922e-02, -1.10501256e-02, 1.90339366e-03, -4.60032113e-02, 2.01066514e-03, 1.19135994e-02, -4.03992124e-02, 4.57141511e-02, 4.15376090e-02, 4.01019901e-02, -3.95040512e-02, -7.46545615e-03, -9.24637690e-02, 6.21295646e-02, -6.01809397e-02, -2.41442248e-02, -4.00953777e-02, -9.09487009e-02, 2.18921248e-02, 1.02559617e-03, -5.06614186e-02, -2.65027732e-02, -1.75278559e-02, -5.47589175e-02, 2.35060172e-04, -2.90839504e-02, -5.87404100e-03, -5.78316711e-02, -1.34522123e-02, -5.01439497e-02, -5.16242534e-02, -1.02592772e-02, 4.21237424e-02, -2.19523571e-02, -1.63660515e-02, -3.48672830e-02, -1.04974699e-03, 1.32112587e-02, 2.17802487e-02, -6.15517981e-02, -5.93538098e-02, -5.70281502e-03, 3.06624025e-02, -5.89754246e-02, 3.89851443e-02, 2.56566629e-02, 4.95508462e-02, 3.66972797e-02, -4.25083116e-02, 2.45258790e-02, -1.01284541e-01, -3.40582686e-03, 1.85738073e-03, -5.91605082e-02, -5.13561256e-02, 3.81880589e-02, -4.86485939e-03, -1.95103232e-02, 6.71768486e-02, -6.72067329e-03, -1.85910880e-03, 2.07524374e-02, 1.63114839e-03, 5.80514558e-02, -3.61556523e-02, -5.64383715e-02, 4.73852642e-03, -1.40244570e-02, 6.95169866e-02, -1.95387974e-02, -1.79827195e-02, 9.78201069e-03, -2.14580516e-03, 9.13175754e-03, 3.21239866e-02, 1.91315580e-02, -1.45645104e-02, 2.09780037e-02, -4.84303646e-02, 2.49052197e-02, 6.55416548e-02, -5.42375818e-02, -9.17014107e-02, 7.55439978e-03, 2.72729490e-02, 3.33487950e-02, 1.71847676e-03, 2.82549858e-03, -1.22331791e-01, 2.71782167e-02, 4.22839969e-02, -7.25861713e-02, 3.82464416e-02, 2.91994568e-02, -2.10666806e-02, -5.87351210e-02, -1.24787474e-02, -1.01425741e-02, -5.45907207e-02, -3.98561023e-02, -1.23165287e-02, 5.71161024e-02, -1.63466055e-02, -1.40527710e-01, -2.16509644e-02, -4.17670817e-04, 3.17973346e-02, -3.48632149e-02, -4.38783430e-02, -4.63624718e-03, -7.42855817e-02, -2.06282102e-02, -3.09702083e-02, 6.54983567e-03, 2.61364542e-02, 8.55481066e-03, 2.04250328e-02, -4.14335579e-02, -1.03086509e-01, 7.62887150e-02, -1.80747155e-02, -4.80596460e-02, 3.17003094e-02, -1.58038475e-02, -5.28339334e-02, 2.14614011e-02, -1.01552848e-02, 1.27415601e-02, 2.65488327e-02, 4.09746468e-02, -1.88397169e-02, 5.73210754e-02, 2.15987749e-02, -2.32288912e-02, -2.31963694e-02, -4.27448191e-02, -2.89167911e-02, 1.93427391e-02, -5.63906543e-02, 3.35184596e-02, -3.01847439e-02, -1.05870748e-02, -2.15238729e-03, -6.27031690e-03, -3.32482904e-02, 1.43660307e-01, -2.16847472e-02, 1.65767912e-02, -1.17697231e-02, 5.41665144e-02, -3.19600552e-02, 6.59207478e-02, -1.02995159e-02, 9.26606543e-03, 2.23603216e-03, -2.80890800e-02, -4.04238068e-02, 2.04639714e-02, 3.56813334e-02, 1.12652278e-03, 2.57725455e-03, -1.57596227e-02, -6.52792230e-02, -6.29044622e-02, -1.50624085e-02, -2.63371542e-02, -9.46174189e-03, 1.78206146e-01, 2.42670048e-02, 2.94787693e-03, -1.09294886e-02, 4.10034396e-02, -4.26021032e-02, 5.63683435e-02, -7.21278563e-02, -1.93565097e-02, 2.09889710e-02, 1.27406754e-02, -2.30135955e-02, -4.43586148e-03, 7.30328122e-03, 3.19689140e-02, 1.66578554e-02, -8.89065042e-02, 1.57282501e-02, -8.58147908e-03, 2.16616113e-02, -1.48853520e-03, 2.07097717e-02, 4.78321612e-02, -1.54502178e-02, 4.42275256e-02, 4.01832461e-02, 3.27623226e-02, -2.45708581e-02, -3.98570206e-03, -4.84399833e-02, -1.20424787e-02, -5.28546870e-02, -8.31286237e-03, -1.49893817e-02, 4.52857092e-02, -1.04642779e-01, 9.73874629e-02, 8.14871490e-02, 4.82944446e-03, 1.07007604e-02, 7.23346695e-02, -9.05509442e-02, -1.73866659e-01, 7.17536826e-03, -1.79922897e-02, -9.96584073e-03, -6.33662865e-02, -5.41017763e-02, 5.31146973e-02, -3.46877985e-02, 4.14050464e-03, -9.19383112e-03, 1.42642967e-02, -9.05007473e-04, 3.78720053e-02, 6.28379220e-03, -2.73563415e-02, 1.11473203e-02, 9.58518009e-04, -3.39732952e-02, 3.12572904e-02, -4.78255898e-02, 4.80052596e-03, -1.41060678e-02, -7.47358277e-02, 4.55903448e-02, -1.01006515e-02, -6.62164092e-02, -5.87889366e-02, 1.94546115e-02, 1.07098483e-02, 4.36580218e-02, -2.32260618e-02, 4.65188250e-02, 1.28246462e-02, -1.43699637e-02, 1.82702988e-02, -4.07530181e-02, -3.54914032e-02, -5.57909161e-03, -3.18197682e-02, -3.88555191e-02, 1.47306093e-03, 2.01063957e-02, -2.25273035e-02, 1.62140913e-02, -3.35811675e-02, -8.45643878e-03, 3.25617529e-02, 4.24682349e-03, -4.68995329e-03, 2.95914859e-02, 5.43251969e-02, -1.20274886e-01, -1.37067856e-02, 2.62798127e-02, -9.95796174e-03, -6.34385198e-02, 5.85285388e-02, 5.08180633e-02, 7.74969626e-03, -3.51329409e-02, -2.18783617e-02, 4.01582867e-02, -6.62684664e-02, -8.80607218e-02, 1.08695980e-02, 5.66255748e-02, 3.32081281e-02, -2.71857455e-02, 1.44782990e-01, 1.15797417e-02, 6.82760552e-02, 4.91431856e-04, -1.12006897e-02, 6.34734426e-03, 2.28658803e-02, -8.02899804e-03, -2.71649547e-02, 2.00478602e-02, -9.49130859e-04, -3.45544219e-02, -9.57929492e-02, 3.07770204e-02, -3.41334902e-02, -4.16105837e-02, -3.20171565e-02, 2.03125514e-02, -5.22782058e-02, -2.67401664e-03, -1.15890456e-02, -3.03465798e-02, 5.87344132e-02, -4.42169048e-02, -7.25639090e-02, -1.45517468e-01, 1.42834336e-02, -6.09261803e-02, 1.81167815e-02, -1.27026647e-01, 1.12315053e-02, -3.69766429e-02, -3.94462794e-02, -5.08218333e-02, 7.67954299e-03, -2.19970755e-03, 5.91730699e-02, -1.01895137e-02, 3.16472650e-02, -4.98534478e-02, -1.05744665e-02, 1.48751801e-02, -1.13871858e-01, 3.22401337e-02, -2.20100526e-02, 1.51166543e-02, -3.00148521e-02, 1.14266602e-02, -1.50507186e-02, -3.51831727e-02, 2.90926732e-03, 1.55260870e-02, -8.63719583e-02, -1.63660329e-02, -1.95035890e-01, -3.16876136e-02, 1.84827261e-02, 1.87457222e-02, 2.30349377e-02, -8.20972677e-03, -3.95725062e-03, -7.00765625e-02, -2.97140982e-02, -5.71197737e-03, 1.84868777e-03, -1.83167048e-02, -7.97289982e-02, 1.25885174e-01, 1.65318698e-02, -3.13033052e-02, 2.30683386e-02, 7.85325468e-02, -1.79894157e-02, 3.02733686e-02, -3.76785062e-02, -3.33342981e-03, 1.13430731e-02, -3.58493961e-02, 3.02974321e-02, -3.02132759e-02, -4.47696075e-03, -3.22240740e-02, -7.43776336e-02, 8.05526692e-03, -3.91044803e-02, -9.83315185e-02, 4.33533825e-02, -1.59139946e-01, -2.44109482e-02, -8.13065842e-03, -3.25848311e-02, 6.61153672e-03, 3.48325707e-02, 2.08187122e-02, 5.50129591e-03, 3.03626247e-02, -9.14727822e-02, 4.19549905e-02, 1.85965318e-02, 5.17185777e-03, 2.37841299e-03, 2.64091324e-02, -1.99291445e-02, -7.07445294e-02, 3.09458189e-02, 4.32237349e-02, -1.62113383e-02, 4.81385812e-02, 3.00876684e-02, -1.48968054e-02, 9.01526436e-02, -7.76118264e-02, -2.21166927e-02, 9.97691303e-02, -2.83654593e-02, -6.34895544e-03, -6.41294494e-02, -1.28800226e-02, 1.44964652e-02, -1.16738901e-01, -3.59588750e-02, -1.80671848e-02, -3.16036046e-02, -5.39311804e-02, -1.81948673e-02, -8.12095925e-02, 1.65902625e-03, 1.06671564e-02, -6.19930364e-02, 1.82740521e-02, -6.85345158e-02, 4.62372564e-02, 7.18249679e-02, 1.04264999e-02, -2.40229908e-02, -6.94287568e-02, 1.43985748e-02, -8.69323090e-02, 2.55582649e-02, -7.23364949e-02, -6.21498153e-02, -7.34067708e-02, -8.38467479e-02, -1.78909879e-02, -4.58161533e-02, 9.20516029e-02, -5.84274009e-02, 3.60842757e-02, -5.01930863e-02, 3.97600792e-02, 2.35838555e-02, 1.49966776e-02, 5.09271286e-02, -1.47888273e-01, 3.06081381e-02, -1.38719790e-02, -4.49639931e-02, 1.85922533e-02, -1.35424707e-04, 1.90888019e-03, 1.56040946e-02, -1.07007258e-01, 4.50720973e-02, 4.66398261e-02, 4.41313758e-02, -1.32746091e-02, 1.89486705e-02, -1.78228579e-02, -1.84912495e-02, -4.10502590e-02, -6.74252957e-02, -4.07950841e-02, -8.32598060e-02, 1.52149042e-02, 2.70233080e-02, -8.71537477e-02, 3.62460166e-02, -3.02556455e-02, 1.96703654e-02, 9.40969214e-03, -1.33956313e-01, -1.05194233e-01, 2.19386127e-02, 4.79984544e-02, 4.06381711e-02, 2.42758878e-02, 2.97329482e-02, 7.64298066e-02, 5.92208654e-02, 7.04317614e-02, -7.79206306e-02, -4.68614846e-02, 2.21487638e-02, -1.40868430e-03, -3.58063206e-02, 1.66936722e-02, -2.50275843e-02, -5.59854247e-02, -1.91715099e-02, -9.47230961e-03, 2.45066732e-02, -5.83814681e-02, 2.13587582e-02, -6.12114742e-02, 1.94114018e-02, -6.10286072e-02, -4.02814373e-02, -6.62737563e-02, 3.42591144e-02, 3.47339176e-02, -9.16644558e-02, -3.95248495e-02, -6.27997667e-02, 5.36106341e-02, -3.32507342e-02, -5.69614058e-04, 9.97678116e-02, 5.71431071e-02, 2.47872528e-02, -8.51619430e-03, -2.35008243e-02, -2.57478766e-02, -8.99781659e-03, -6.38067648e-02, 6.15420304e-02, -4.26062383e-03, -1.51633143e-01, 5.04931770e-02, 3.61547843e-02, -4.23816256e-02, 7.91173354e-02, -4.18458655e-02, -4.18466106e-02, -4.21302915e-02, -8.41466244e-03, -6.61284029e-02, 5.53934723e-02, -1.52918631e-02, -1.29946798e-01, 2.01422721e-02, 6.00836687e-02, 3.37877199e-02, 5.29422686e-02, 5.50138392e-02, -4.96893423e-03, 6.70482917e-03, -2.63882168e-02, 1.17602795e-01, 3.13968249e-02, 4.80861627e-02, 6.68862984e-02, -1.47939026e-01, -1.70732379e-01, 5.98701183e-03, -6.74935207e-02, -2.82236543e-02, -7.29438942e-03, 6.76082098e-04, -4.68931533e-03, -9.84997377e-02, -3.21237668e-02, 1.88662845e-03, -5.49683906e-02, 2.16077827e-02, -2.17163153e-02, -9.70066190e-02, 5.11393771e-02, -1.03268862e-01, -6.81806281e-02, -2.70791519e-02, -3.37090567e-02, 3.04613672e-02, -2.38250289e-02, 9.75647718e-02, 4.40481380e-02, 1.88539959e-02, -1.62430424e-02, -1.46823868e-01, -1.11636981e-01, 7.78319687e-02, 1.46949768e-01, -1.62660643e-01, 2.21718270e-02, 6.65283808e-03, -5.65215312e-02, -8.01478475e-02, 1.84292924e-02, -4.90145534e-02, -7.21801668e-02, -2.16408327e-01, -4.20047268e-02, 7.02980980e-02, 8.41263682e-03, -7.18082860e-02, 5.44480197e-02, -8.34956095e-02, 1.60094164e-02, -9.13632140e-02, 7.17745163e-03, -7.06479922e-02, -2.47935625e-03, -2.38082488e-03, -1.65025648e-02, -3.96061838e-02, 4.72930670e-02, -6.16282932e-02, 5.26481643e-02, 9.27317217e-02, 4.91836900e-03, -1.60116684e-02, -1.11560412e-02, 4.69517149e-02, 5.74674308e-02, 3.27180438e-02, 1.77349430e-02, -4.40719984e-02, 7.85902888e-02, -5.59148267e-02, -5.95397577e-02, -6.02976643e-02, -1.07158981e-01, -1.08485281e-01, -9.40734521e-03, -8.81739184e-02, -9.06691402e-02, -1.41819548e-02, -7.32754916e-02, -4.55223322e-02, -9.28863585e-02, -7.47879595e-02, 4.66043130e-02, -2.47664135e-02, -4.63834628e-02, 2.66263876e-02, -1.39478296e-02, -1.11214414e-01, -2.36112401e-02, 5.51829040e-02, -1.04064748e-01, -3.87358889e-02, -7.35483617e-02, 3.26814912e-02, -6.86632842e-02, 1.33716628e-01, 9.34457853e-02, -4.21845950e-02, 5.71712330e-02, -1.33070741e-02, -6.65233359e-02, -1.39584308e-02, 8.11697356e-03, -4.98102680e-02, 1.95900947e-02, 6.72084093e-02, -7.00691566e-02, 8.17533210e-02, 1.51173270e-04, -7.41285607e-02, 3.14670838e-02, -6.61591217e-02, -8.84946436e-02, -6.64262399e-02, 3.70482095e-02, -1.04911268e-01, 3.68110202e-02, 2.13298970e-03, -5.50173875e-03, 2.16549374e-02, 4.61199284e-02, -5.60154915e-02, 6.25414550e-02, 3.93809900e-02, -1.04959220e-01, 2.85769962e-02, 4.96134907e-02, 1.23676911e-01, 4.81261872e-02, -2.31854413e-02, 4.59491089e-02, -3.38396914e-02, -6.55751675e-02, -6.75087050e-02, -6.32760972e-02, -4.26018722e-02, 3.12187299e-02, 5.33739962e-02, -6.87145293e-02, -7.26545900e-02, -6.66866302e-02, -3.89418975e-02, -8.36287662e-02, 5.16203977e-03, -7.05341697e-02, -4.35307212e-02, 7.71724656e-02, -1.36833131e-01, -4.59892377e-02, -6.89781457e-02, -2.68897191e-02, -5.52389072e-03, 4.31480305e-03, 1.42093552e-02, 8.22456107e-02, -6.05831966e-02, -8.85547232e-03, -8.80822316e-02, -2.11280435e-02, 2.56165043e-02, -1.30071389e-02, -6.52893856e-02, 3.35809402e-02, -7.76812958e-05, -7.45350122e-02, -1.13263533e-01, 4.10072319e-03, -5.17752394e-02, 7.61749372e-02, -5.14708199e-02, 3.20328586e-02, 5.25559559e-02, -8.20629299e-03, -9.97481272e-02, 6.06841706e-02, -9.34059471e-02, 3.59109230e-02, -5.07445149e-02, -1.09461412e-01, -6.80250451e-02, 4.04363908e-02, -2.03561597e-02, -1.38904214e-01, -7.88097531e-02, 3.83598208e-02, -1.98116526e-02, 5.30169867e-02, 5.21560796e-02, -7.95501992e-02, -7.54302591e-02, -2.65891045e-01, -3.70255373e-02, 3.40822041e-02, -8.19324106e-02, -1.55959260e-02, -9.54848751e-02, -9.57339928e-02, -5.07742390e-02, -5.05668744e-02, -7.00019076e-02, -6.34806976e-02, -6.16121218e-02, 4.78080437e-02, -1.31484166e-01, -3.01977061e-02, -3.89464907e-02, -1.91718992e-02, 2.26833168e-02, -2.21134946e-02, 8.84945169e-02, -1.28513798e-02, 5.05249612e-02, 1.14348732e-01, -2.04839520e-02, 7.92138651e-02, -1.09730430e-01, 1.66906677e-02, -4.06315224e-03, 2.44307686e-02, 2.62100939e-02, -2.16987124e-03, 1.08269807e-02, -1.14880863e-03, -6.12713303e-03, -6.98412061e-02, 4.51447852e-02, -1.30433561e-02, -5.97106367e-02, 4.38780477e-03, 7.61570632e-02, 1.69454012e-02, -2.70343032e-02, -8.37470219e-02, -5.92561997e-02, 3.04990709e-02, 6.44199958e-04, -9.19119176e-03, 2.74109691e-02, -2.96834242e-02, 1.45385200e-02, -1.09043913e-02, 9.55579430e-03, -2.58677732e-03, 2.79216375e-02, 2.09823549e-02, -3.48156728e-02, 1.74224135e-02, -1.04359217e-01, -1.04456069e-03, 1.01043598e-03, 1.43367867e-03, 9.75284819e-03, 7.16684833e-02, -2.61051692e-02, -2.22052019e-02, -1.49261737e-02, 4.61904556e-02, -1.43336477e-02, -4.88985563e-03, -8.05741027e-02, -6.49389103e-02, -1.61628576e-03, 1.69797223e-02, 2.23458223e-02, -9.03181136e-02, -4.97712158e-02, -4.42804173e-02, 6.11891039e-02, 5.01710325e-02, 4.04796936e-02, -3.22690755e-02, -3.62731889e-02, 2.43895259e-02, -8.81701522e-03, -1.94902346e-02, -9.49814618e-02, 2.14562416e-02, -2.93797962e-02, -1.09348111e-02, -5.14368266e-02, -6.44527702e-03, -4.57824133e-02, -9.25521273e-03, -5.43595068e-02, -4.51380946e-02, -6.58472702e-02, -4.75773141e-02, -1.27981296e-02, -1.06744915e-01, 3.52733284e-02, -2.19919588e-02, -2.64451653e-03, 5.71629032e-02, -6.72950670e-02, -3.56057682e-03, 1.74644850e-02, -2.25249911e-03, -7.99969677e-03, 5.73111698e-02, -3.35591324e-02, -5.62617742e-02, 2.27208883e-02, -3.18361190e-03, 1.07134401e-03, -5.53613268e-02, 2.71779336e-02, -4.54712100e-02, 2.77645029e-02, -6.89235255e-02, -3.29381041e-02, -9.94823426e-02, -9.08380151e-02, 7.28396513e-03, 8.76366124e-02, -2.70696729e-02, 2.20983662e-02, -4.39480729e-02, -2.31562871e-02, -7.92556182e-02, -4.48092856e-02, -1.52374972e-02, 8.54678918e-03, -7.48462649e-03, 8.88582319e-03, 2.44755708e-02, 6.61704540e-02, 2.66440436e-02, 5.43369167e-02, -1.33994773e-01, -7.66579295e-03, -3.06658298e-02, -1.16528004e-01, -6.34630071e-03, -2.77297217e-02, 1.04396045e-02, 2.36076787e-02, -4.22430784e-02, 7.35054389e-02, -2.51075346e-03, -9.33676362e-02, -1.32474601e-02, -2.45196931e-03, 4.01932746e-02, -3.10323923e-03, 2.13652700e-02, -2.29337774e-02, -7.58131966e-02, 1.51773253e-02, -1.21097378e-02, -1.48734599e-01, 3.80101092e-02, 5.96130714e-02, 1.00441523e-01, -3.24413122e-06, -2.62822844e-02, 9.56462789e-03, -1.34312995e-02, 1.44212758e-02, -4.32644179e-03, 1.08660469e-02, -1.68114796e-01, -6.82328343e-02, -6.00961708e-02, -1.23230647e-02, -4.06972170e-02, -1.13743031e-03, -4.56006043e-02, 4.70872559e-02, 1.35337990e-02, 2.43125912e-02, -2.56593060e-02, -2.26742532e-02, 4.11556028e-02, 2.88612470e-02, -4.98971436e-03, 7.23160654e-02, 5.48007106e-03, 4.62537855e-02, -2.08109673e-02, 2.24863812e-02, -6.29604980e-02, -1.52973533e-02, -9.24454555e-02, -1.02667883e-01, -2.70476285e-02, -5.47731435e-03, -7.99389109e-02, 2.72911116e-02, -4.73394692e-02, -6.75384626e-02, -1.91680389e-04, 4.60504889e-02, 1.24939181e-01, -3.47678363e-02, 3.70235629e-02, -6.33915216e-02, 2.64275186e-02, 6.34790659e-02, 2.22166032e-02, 5.79689536e-03, -4.10855934e-03, 7.31716445e-03, 4.49855663e-02, 8.38062912e-02, -1.74601004e-02, -4.39962670e-02, 5.00600412e-03, -7.53720999e-02, 2.48412769e-02, 3.68833989e-02, -3.75321768e-02, 5.54099455e-02, -9.85338911e-02, 1.56280268e-02, 9.11772531e-03, 1.58980340e-02, 1.73744243e-02, 2.55721621e-02, 1.40542192e-02, -7.62687624e-02, 1.25186890e-02, 6.63278177e-02, -4.25817296e-02, -1.92318223e-02, -4.36440436e-03, -9.38394368e-02, 1.01754643e-01, 4.31688912e-02, -9.76157840e-03, -3.67821977e-02, 3.77454124e-02, 5.78992069e-04, 4.53767627e-02, -2.75218468e-02, 4.39530462e-02, -3.49915549e-02, -4.19778824e-02, 2.57319342e-02, 4.62055244e-02, -3.36468853e-02, 1.68873966e-02, -5.07332832e-02, 1.95386391e-02, 5.71557246e-02, -1.26123754e-02, 1.06881680e-02, 3.22680734e-03, 9.68159512e-02, -3.99900926e-03, -1.17341494e-02, 4.06583734e-02, -8.99950191e-02, 1.07299149e-01, -9.37264562e-02, 2.58987630e-03, -5.55001274e-02, -8.37275013e-02, 4.80153523e-02, -3.64785530e-02, -4.38842736e-02, -5.56863146e-03, -3.84041332e-02, -1.05072238e-01, 3.48990224e-02, -3.18932571e-02, -2.25014091e-02, -1.06448932e-02, 7.93847516e-02, 1.08430814e-02, 4.08004504e-03, -3.74123938e-02, -7.44052976e-02, -2.67061964e-02, 1.71865001e-02, -3.00449971e-02, 4.34339792e-02, 4.78619114e-02, -5.20754009e-02, -6.31177574e-02, -4.92648454e-03, -2.30787247e-02, 9.76877213e-02, 9.54978447e-03, 5.85579462e-02, -3.40952575e-02, 4.03401777e-02, -4.39818725e-02, 2.12735143e-02, -4.51634871e-03, -9.31870565e-02, -4.55491953e-02, 1.33981993e-02, 1.21532008e-03, 1.26424935e-02, -1.45122800e-02, 4.28074552e-03, 5.16494736e-02, -3.11490986e-02, -8.02131835e-03, -6.42249919e-03, 7.42360577e-02, -1.52775710e-02, 9.27682370e-02, 2.20368593e-03, -1.17981192e-02, 8.30115154e-02, -1.38403876e-02, 4.23022509e-02, 3.07321195e-02, -2.97072902e-02, 1.13268606e-01, 4.19259220e-02, -2.41591525e-03, -2.55673751e-02, 2.07812395e-02, 5.13363145e-02, -6.22666851e-02, 1.09179951e-01, -4.01445702e-02, -6.79335231e-03, -1.47259496e-02, 2.52233073e-03, 1.35355080e-02, -1.81514010e-01, 3.90991895e-03, -2.76600253e-02, 1.05837814e-03, 2.63395230e-03, 1.16621125e-02, 3.84656079e-02, -5.32330573e-02, 6.95698150e-03, -2.33560931e-02, 3.98869626e-02, 3.92250344e-02, 7.38396347e-02, 5.22047095e-02, -5.52274995e-02, 3.82932611e-02, -1.48734413e-02, 2.07807217e-02, -5.37641756e-02, -1.06147248e-02, 1.47344649e-01, 4.15766537e-02, 1.10180303e-01, -8.71874243e-02, 1.95924193e-02, 6.71106428e-02, -6.41448656e-03, 4.47055176e-02, -4.03576298e-03, 1.88615676e-02, -2.05396079e-02, -1.54032812e-01, -4.01322618e-02, -9.42481607e-02, -4.37622480e-02, -7.70517588e-02, -1.36262896e-02, -9.29369703e-02, 3.49497236e-02, 7.86993802e-02, 1.79303251e-02, -7.09049404e-02, -4.35014404e-02, 1.11173429e-01, -2.11740495e-03, -2.12770496e-02, 8.65761563e-03, -3.98095995e-02, -2.11219322e-02, 1.04493484e-01, -4.88528330e-03, 5.43090478e-02, -7.89248347e-02, -3.51482444e-02, -9.71554033e-03, -5.46007417e-03, 7.15680467e-03, -4.38844040e-02, 1.70017313e-02, 2.84058284e-02, 3.64319310e-02, -4.79300739e-03, 6.70685340e-03, -1.04865828e-03, -5.82403019e-02, 3.37673873e-02, 2.08152607e-02, 2.61240583e-02, -2.14534160e-02, -3.87317166e-02, -3.40923038e-03, -7.14666247e-02, 4.47058305e-03, -4.19764966e-02, -3.94470207e-02, -5.71888797e-02, -9.76669192e-02, 6.80506462e-03, 2.90542841e-02, -6.79368060e-03, -1.10958861e-02, 3.44921164e-02, -7.66306370e-03, -3.13767008e-02, 2.74008587e-02, -5.05168997e-02, 2.09789313e-02, -5.11943474e-02, 1.12924181e-01, 3.06686535e-02, 1.44192437e-02, 2.96768174e-02, -6.09127525e-03, 1.55601706e-02, 7.35224634e-02, -5.00297621e-02, 1.24903927e-02, -2.70634256e-02, -8.54064375e-02, -5.66303870e-03, 8.10958911e-03, -8.43971316e-03, -2.29857210e-02, 1.77969225e-02, -3.73667292e-02, 7.61380047e-02, -5.06201386e-02, -1.81903750e-01, 2.24073902e-02, -2.97351298e-03, -1.22637898e-01, -3.67272366e-03, -1.73083264e-02, -3.53937447e-02, 2.82781571e-02, -5.46004064e-02, 3.57652083e-02, 1.26561355e-02, -4.86174691e-03, 4.04841676e-02, -1.80817414e-02, -1.53025135e-01, -1.41194481e-02, -3.32469046e-02, -3.77187654e-02, 9.04149041e-02, -9.08383802e-02, 3.01995650e-02, -2.33876426e-02, -3.59291919e-02, -3.79942991e-02, -5.69124632e-02, -1.54309142e-02, -9.37278643e-02, -3.87714594e-03, -4.80458029e-02, -6.04916923e-02, -2.99091358e-02, 8.25836230e-03, -1.01073375e-02, -6.09967448e-02, -5.05105266e-03, 1.34069873e-02, -2.21493598e-02, 2.78816018e-02, -5.01492582e-02, -2.21541198e-03, -1.66216530e-02, 9.63858664e-02, 3.95487584e-02, 1.92946999e-03, -6.74528107e-02, -2.68159229e-02, 1.63311400e-02, -1.21900991e-01, 6.06970973e-02, -5.96576557e-02, 2.05078125e-02, 6.53162897e-02, -9.75035354e-02, -1.00525832e-02, -9.25388746e-03, -4.73335646e-02, -1.86874438e-02, -2.41281372e-03, -7.89624080e-02, 2.74335593e-03, 3.77916358e-03, 4.76043448e-02, 1.51227890e-02, -5.13842069e-02, -3.75432931e-02, -1.26859993e-01, -5.20454813e-03, 6.07728548e-02, -2.22457722e-02, -1.78819825e-03, -2.27714665e-02, 2.21942514e-02, -1.13798045e-01, 2.44591441e-02, -2.01027673e-02, 4.45718914e-02, 6.68358356e-02, 1.36001585e-02, 5.29207885e-02, 5.21968212e-03, 1.83712747e-02, 8.65765195e-03, 7.99456984e-02, 2.00074937e-05, 3.73926871e-02, 1.12889158e-02, -6.24410296e-03, -4.01727930e-02, -2.17302591e-02, -1.06303722e-01, -3.89574021e-02, 2.56600715e-02, -8.05393979e-03, -2.48468742e-02, -1.13334700e-01, 2.33592074e-02, -1.38740670e-02, -7.98783749e-02, -7.24595366e-03, 3.57065648e-02, 1.40069155e-02, -1.15411781e-01, -2.50622574e-02, 1.24326110e-01, -2.01703864e-03, 8.51964429e-02, -4.20793407e-02, -7.95281678e-02, -3.71019319e-02, -8.05674959e-03, -6.76711947e-02, -4.34282981e-02, 6.48248121e-02, -6.42784983e-02, -3.88841517e-03, -4.67206985e-02, -5.79272844e-02, -7.44323479e-04, -4.68117334e-02, -6.19449131e-02, -3.52198556e-02, 1.35347191e-02, -6.74572587e-02, 1.08215995e-02, -8.49567130e-02, -9.16285347e-03, -6.03363924e-02, -5.47842011e-02, 4.78018336e-02, -8.82836729e-02, 2.70049460e-02, -1.05811590e-02, 7.25800497e-03, -2.39566248e-02, -2.37484388e-02, -1.72430128e-02, -9.10180956e-02, -6.96727410e-02, 4.95901741e-02, 2.96095759e-02, 5.88066923e-03, -3.21315266e-02, -4.06517759e-02, -1.01026297e-02, -2.35220250e-02, -1.68788657e-02, -1.24854548e-02, -9.08926316e-03, -5.75546846e-02, -1.05859667e-01, 3.53471376e-02, -1.08412363e-01, -3.66054066e-02, -9.63281915e-02, -3.21711488e-02, 6.90013403e-03, -2.98304763e-03, -9.25531611e-02, -1.86816473e-02, -3.95432301e-02, -1.34153897e-02, -4.66570444e-02, -5.79560176e-02, 5.01696169e-02, 3.71096213e-03, -1.24102414e-01, -2.50382069e-03, -1.09362923e-01, 1.71776712e-02, 3.23232748e-02, -1.17920399e-01, -9.77945104e-02, 1.83784757e-02, 2.83321142e-02, -2.02009790e-02, -5.50241470e-02, 7.99204931e-02, -4.06796522e-02, -2.24304181e-02, 4.99197021e-02, 2.03015730e-02, 1.93548668e-02, -2.85513997e-02, -3.10338046e-02, -3.25361043e-02, -6.50480539e-02, -9.53357443e-02, -1.33773340e-02, -2.29681805e-02, 1.42978113e-02, -6.30998313e-02, -1.79620292e-02, -1.10324912e-01, -3.58031988e-02, 3.11160088e-02, -1.18057668e-01, 3.46115828e-02, -1.18429642e-02, -5.27834557e-02, -2.76972130e-02, -9.93150175e-02, -1.55896857e-01, 5.87143302e-02, 2.74325870e-02, 6.05839156e-02, -3.19117494e-02, -1.14693448e-01, 3.77980582e-02, -6.24460578e-02, 9.39226709e-03, -4.12506610e-02, -1.10135647e-02, -8.62809420e-02, -1.30011722e-01, 4.23656264e-03, 3.29791754e-02, 3.29043828e-02, 9.72080082e-02, 9.02934186e-03, 5.09571144e-03, 3.14859003e-02, -3.87312248e-02, -2.59599313e-02, 2.35001487e-03, -4.23716418e-02, -4.44614813e-02, 2.23748256e-02, -5.80338761e-02, 6.19229972e-02, 1.35692665e-02, 3.19168493e-02, 3.76423337e-02, 7.18159042e-03, -3.57757173e-02, 7.30276853e-02, -2.57350672e-02, 2.20762398e-02, -5.82125364e-03, 7.09934451e-04, -1.66270018e-01, 1.00696243e-01, -1.77924172e-03, 5.33074960e-02, -1.50685841e-02, -6.92711025e-02, 3.72443423e-02, 3.83651964e-02, 1.07085388e-02, 1.24170333e-02, -8.53032693e-02, -1.00353114e-01, 6.00905158e-02, 1.53248338e-02, 1.09693650e-02, -1.11447992e-02, -1.02042570e-03, 9.88940522e-02, -1.37539834e-01, 4.66339700e-02, -4.06736545e-02, 3.21875773e-02, -3.74648795e-02, -6.73706084e-02, 9.42002330e-03, 5.75009398e-02, -4.72706333e-02, 5.16813956e-02, 8.15826003e-04, 4.11601104e-02, 1.47876572e-02, 2.36933008e-02, -1.41439110e-03, 2.98321210e-02, 2.20876560e-02, -9.14977416e-02, -1.35352379e-02, -1.21190667e-01, 9.57716331e-02, -3.89575586e-02, 4.07488346e-02, 6.18870780e-02, -6.08150922e-02, 3.18236761e-02, 8.27197433e-02, -3.75364423e-02, 3.59698711e-03, -8.44465382e-03, -2.82944832e-02, 7.21279830e-02, 4.18821499e-02, 1.89398546e-02, -4.63881418e-02, -9.36365221e-03, -5.75951338e-02, 6.23334348e-02, -1.89938731e-02, 4.91552008e-03, 1.65700773e-03, -3.22121568e-02, 5.94436750e-02, -1.15435570e-02, 5.55537455e-02, 8.53311212e-04, -2.13405546e-02, 7.38004670e-02, 2.95337546e-03, 6.39313534e-02, -5.51122576e-02, -2.33818293e-02, -2.34974492e-02, -2.34341007e-02, 5.90526732e-03, -6.73986226e-02, -2.63519958e-02, -4.16445583e-02, 2.12239921e-02, 3.90102365e-03, 4.61419672e-02, -7.11648762e-02, -1.97357945e-02, 3.73372734e-02, 7.58606195e-02, 1.57770589e-02, 6.25923499e-02, -6.46939548e-03, -7.85091743e-02, 2.34490950e-02, 2.89775860e-02, 2.12823395e-02, -4.95725824e-03, -9.38433968e-03, 7.06728324e-02, -9.60058812e-03, 3.18280011e-02, 4.83465828e-02, 1.29639124e-02, 1.81711856e-02, 3.17168199e-02, -1.11990422e-03, -1.47457244e-02, -1.13106184e-02, -1.36282295e-01, 3.33262570e-02, -2.10101102e-02, 2.34013088e-02, -2.41326317e-02, 6.64089471e-02, 1.68964379e-02, -5.33110611e-02, -5.81354387e-02, -3.23453099e-02, -6.90858737e-02, -3.33675146e-02, -9.08903107e-02, -1.40383048e-02, 3.69326733e-02, -6.01209253e-02, 5.41870855e-03, 7.77467480e-03, 6.35327213e-03, 4.16879058e-02, -8.61769468e-02, 8.19015056e-02, -6.27206638e-03, -8.97744820e-02, -8.76867305e-03, -1.23344203e-02, -8.77133757e-02, 4.80924398e-02, 3.38018574e-02, 1.54273901e-02, -1.80705823e-02, -2.86306851e-02, -7.58664170e-03, 1.79073401e-02, 4.09664540e-03, -9.27839242e-03, 1.25162955e-02, -1.95220709e-02, -1.54835917e-02, 6.49352595e-02, 1.42903421e-02, -1.30011022e-01, -2.48756502e-02, -1.53076902e-01, -1.03880307e-02, 2.89342850e-02, -6.38846010e-02, -2.76586674e-02, -4.28493284e-02, 1.90994665e-02, 2.12416444e-02, -3.96621004e-02, 2.75851302e-02, -2.71531492e-02, 1.02399215e-01, -8.28999374e-03, -5.56818433e-02, -1.01519465e-01, -2.08138898e-02, 1.51039883e-02, 8.55556875e-03, 7.46369129e-03, -1.72876548e-02, -3.60000506e-02, 9.85732898e-02, -3.57849859e-02, -2.43106242e-02, -8.44047144e-02, -3.87077965e-02, -3.91790383e-02, -1.85271390e-02, 2.11972259e-02, -1.40632680e-02, -1.00828715e-01, -4.56287339e-02, 1.38907246e-02, 4.77199741e-02, -5.81407771e-02, -2.13153381e-03, 7.45283440e-02, 2.05187481e-02, -1.94916576e-02, 2.00879183e-02, 8.23047459e-02, 1.54333219e-01, 8.74432921e-02, -1.35394067e-01, -2.23403592e-02, 2.08725240e-02, -4.90458263e-03, -4.00023870e-02, 9.59681533e-03, 3.96073796e-02, -2.53496170e-02, -3.87783945e-02, -9.66525599e-02, 1.81801021e-02, -6.57254830e-02, -1.04799159e-01, -4.78372425e-02, -1.48075270e-02, -2.05400176e-02, -3.11468192e-03, -5.38075715e-02, 3.12701203e-02, -8.30002353e-02, 1.90937414e-03, 5.89239448e-02, 1.87810231e-02, 4.96612526e-02, -7.55423084e-02, 1.69237573e-02, 1.77934896e-02, -1.19067580e-01, -4.87142503e-02, -9.63174389e-04, -3.77453379e-02, 1.43865077e-02, 2.89164740e-03, -1.30756661e-01, -1.50535870e-02, -6.43691868e-02, 8.59243423e-02, -9.16408282e-03, -1.63673833e-02, -3.64036672e-02, 1.86930725e-03, 1.59555506e-02, 1.89301185e-02, 2.54255943e-02, -5.61800227e-02, -5.81268854e-02, -3.92253138e-03, 2.37656944e-02, -7.03317076e-02, 7.46925175e-02, -1.12635463e-01, 3.38911228e-02, -6.42094295e-03, -3.40303853e-02, -7.89102074e-03, 3.48823592e-02, -3.84136243e-03, -1.72527898e-02, -5.69715872e-02, -2.39129290e-02, -1.21719182e-01, -9.11329910e-02, 4.27899212e-02, 4.64227200e-02, -2.25339811e-02, 1.34668397e-02, -5.25141023e-02, -7.01756924e-02, 3.85320187e-02, -1.32879615e-02, 3.60832200e-03, -1.54700540e-02, 3.94780263e-02, -8.97524655e-02, 7.78248981e-02, 5.43311425e-02, -7.40399910e-03, 4.62271906e-02, 5.91872521e-02, -4.03762832e-02, -4.34099361e-02, -3.44280787e-02, -6.47235662e-02, 5.87317646e-02, -4.13975818e-03, -3.44871804e-02, -2.63979174e-02, 4.37622070e-02, -5.88800535e-02, 6.57265037e-02, 4.89544943e-02, 4.67036292e-03, 2.76706601e-03, -1.21845014e-01, 1.36048878e-02, 3.01786736e-02, -7.05230311e-02, 5.70445359e-02, -1.26217157e-01, -1.42021906e-02, -8.74810070e-02, -3.71216908e-02, -1.04958303e-02, -1.31369233e-01, 5.58993481e-02, -6.02923669e-02, -6.22088797e-02, -8.34230185e-02, -4.63233031e-02, -2.10709311e-02, -4.05179486e-02, 2.02116631e-02, -2.51184385e-02, 1.50151169e-02, -5.38644306e-02, -2.84462254e-02, 7.30826110e-02, 8.16660840e-03, -5.31461723e-02, 2.56958008e-02, 6.46614283e-03, 7.95004889e-04, -7.25684464e-02, 1.14258388e-02, 4.81537394e-02, 8.06025881e-03, 4.21168581e-02, -6.58354834e-02, -6.98203146e-02, -1.36516511e-03, -1.19531065e-01, -2.14505401e-02, -7.88333302e-04, -3.95965837e-02, -3.10008675e-02, 3.79081182e-02, 2.10142136e-02, 2.43616924e-02, -3.84486243e-02, -6.96537830e-03, 5.45804109e-03, -8.49675201e-03, -6.49702474e-02, 3.03555354e-02, 7.13733071e-03, 1.56043852e-02, -1.61799905e-03, -3.10883392e-02, -9.20833554e-03, -1.14804491e-01, -4.05059047e-02, -1.53337857e-02, -6.13848455e-02, -1.86994709e-02, -7.22531006e-02, -8.49918723e-02, -2.92322077e-02, -2.43896935e-02, -1.27572743e-02, -2.81821322e-02, -1.07895881e-01, -5.09782992e-02, -3.90663557e-02, 7.82644227e-02, -1.04343332e-01, -2.55357828e-02, -1.14537701e-02, 3.28429751e-02, 9.06358194e-03, 2.78897886e-03, 1.14199534e-01, -1.68940518e-02, 3.78526486e-02, 2.35842559e-02, -9.37898271e-03, -5.26955025e-03, 8.72899368e-02, 2.25201137e-02, -1.05396628e-01, -1.54287210e-02, -3.85486074e-02, 5.26027754e-02, 2.02225298e-02, -4.38649990e-02, -3.38300131e-02, 2.22392697e-02, -7.15948269e-02, -1.35783395e-02, -8.15028325e-02, 2.59881355e-02, -4.72810119e-02, -7.60557130e-02, -7.77872354e-02, -3.60986479e-02, -7.26877261e-06, -5.36184125e-02, -1.06183507e-01, 2.84161139e-02, -1.41585376e-02, -9.42398310e-02, 8.72206292e-04, -4.55353521e-02, -8.22701007e-02, -3.06848586e-02, -6.06589615e-02, -4.45773713e-02, 3.34211998e-02, 2.21638065e-02, -3.40010505e-03, -3.68753150e-02, 1.43108498e-02, 4.32267897e-02, -5.98740838e-02, -4.84220199e-02, -8.07569325e-02, -2.78649386e-03, -3.38737518e-02, 3.04379454e-03, 2.19146200e-02, -1.03115417e-01, -5.79521665e-03, -1.23781808e-01, -3.92815843e-02, 3.81605141e-02, 4.15305793e-02, -2.10454743e-02, -5.98232746e-02, -3.53756212e-02, -6.76428527e-03, 8.20245035e-03, -4.15188866e-03, -4.87972870e-02, -6.42768992e-03, 3.67669612e-02, -1.49269169e-02, -7.18615076e-04, -1.05874993e-01, 2.22103614e-02, 5.58547396e-03, 1.07863314e-01, 8.26010704e-02, -1.78378727e-02, 2.82137096e-02, -9.67982113e-02, 4.34829630e-02, 5.15155643e-02, -2.09277030e-02, 4.47739288e-02, -7.80494139e-03, -1.13854319e-01, -6.70438185e-02, -3.19874510e-02, 1.57962531e-01, 3.36478986e-02, -1.12645850e-01, 8.85036832e-04, -3.24197114e-02, -3.55413444e-02, -3.67250182e-02, 5.28835803e-02, 1.93234235e-02, 5.08425273e-02, 2.16328744e-02, -4.73438501e-02, -1.02723785e-01, 1.48617392e-02, -3.19643132e-02, -1.69309266e-02, -2.53481623e-02, -2.46540513e-02, 8.09687078e-02, -7.42615685e-02, 5.67529202e-02, -1.37482705e-02, 2.84468736e-02, 2.03729980e-03, -1.58473551e-02, 5.79250567e-02, -6.27202727e-03, 1.36939641e-02, 1.18229873e-01, 1.56494789e-02, -1.19838938e-02, -2.34934147e-02, 6.00907058e-02, 2.77225953e-02, 2.82595605e-02, -2.83780918e-02, -3.26790176e-02, -3.48990746e-02, -2.40787473e-02, 1.77162644e-02, 5.26410993e-03, 2.25217119e-02, 5.84747642e-02, -9.67414603e-02, 3.24744396e-02, -3.11022401e-02, -2.66962927e-02, 4.36372869e-02, 3.64585407e-02, 3.32658412e-03, -2.08481569e-02, 5.28984629e-02, 8.55015293e-02, -3.86796705e-02, 5.25831655e-02, 6.42274842e-02, 4.48461622e-02, 7.33307302e-02, -5.89879649e-03, 3.40438969e-02, 1.75089613e-02, 4.19421457e-02, -4.63114269e-02, 2.56222896e-02, -1.50369741e-02, 3.60216796e-02, 1.01864636e-01, -2.42821090e-02, 6.33967668e-02, -8.34293440e-02, -6.02789298e-02, 3.31251621e-02, 7.47776851e-02, 6.15935549e-02, 4.37583588e-02, 2.50699520e-02, -7.30100200e-02, 8.19129795e-02, -3.88981551e-02, -6.37560412e-02, 4.93841469e-02, -9.09444019e-02, -3.96259911e-02, -3.47182862e-02, 6.98736459e-02, 7.62816668e-02, 4.58390228e-02, -6.85730726e-02, -7.22704008e-02, -3.29690357e-03, 4.25746217e-02, 6.55153126e-04, -8.30817521e-02, -2.51711346e-02, -1.20548993e-01, -7.07330927e-02, 5.60767576e-02, 1.03770107e-01, -6.88396171e-02, -1.77798793e-02, -8.80009905e-02, -7.84692913e-02, 2.92134006e-02, 1.14778943e-01, -6.09121323e-02, 4.44938950e-02, 7.41743520e-02, -3.51774059e-02, 1.40094003e-02, -1.18507375e-03, -1.51387043e-02, 5.26177362e-02, 7.88368098e-03, 1.73471235e-02, -5.41082770e-03, 1.45313907e-02, 6.55211434e-02, -2.33157091e-02, -5.20527363e-02, 3.21060568e-02, 5.06122448e-02, 3.50043587e-02, 3.24665643e-02, 2.52288189e-02, 2.33110227e-02, -7.55743682e-02, -2.54648514e-02, 4.69504185e-02, -1.16684139e-01, 7.43086264e-02, -1.05929591e-01, -1.53468832e-01, 4.75958101e-02, -2.15759501e-03, -2.27053463e-02, 3.60093638e-02, -1.17833294e-01, 1.08160906e-01, 4.52533625e-02, -5.79285696e-02, 6.95766285e-02, -4.14600112e-02, 3.21457651e-03, 6.03085607e-02, 5.90761527e-02, 7.11932927e-02, -4.36335877e-02, -1.16392292e-01, 6.05257228e-02, -2.10317802e-02, 4.29571234e-02, -2.83340625e-02, 1.64275263e-02, -2.44230479e-02, 1.03792667e-01, 6.56715110e-02, 3.22879888e-02, 4.56142686e-02, -8.90982617e-03, 1.44916084e-02, 2.86231935e-02, 6.35990649e-02, 5.30304797e-02, 1.67645013e-03, -3.93800884e-02, 7.37399161e-02, -8.34360998e-03, -7.46030957e-02, 1.60441902e-02, 2.45867241e-02, 2.58935448e-02, -1.63431261e-02, 6.12229807e-03, 3.90546732e-02, -8.56406614e-02, 4.19928245e-02, 9.74587817e-03, 2.78725456e-02, -5.93416691e-02, 1.24216871e-02, -1.22500686e-02, 3.73542607e-02, -9.86820012e-02, -3.83168273e-02, 1.63592119e-02, -3.90111394e-02, -1.21040987e-02, 3.39702368e-02, 4.88298908e-02, -1.94225181e-02, 5.75492121e-02, 9.06843022e-02, -1.79147590e-02, -3.78522128e-02, -1.59778506e-01, -9.26531032e-02, -2.04078481e-01, 6.87946156e-02, 7.09911212e-02, -5.74776009e-02, 3.49251442e-02, 7.70378038e-02, 4.46532562e-04, -4.21145372e-02, -1.00795403e-01, -1.57553732e-01, 2.61972677e-02, 9.90601927e-02, 7.02267466e-03, 1.07047081e-01, -1.23815155e-02, -5.18517420e-02, 1.37267793e-02, -1.28038719e-01, -4.05756943e-02, -7.75032267e-02, -2.68020984e-02, -5.26341833e-02, -7.90506303e-02, 7.70793483e-02, 1.75213721e-02, 6.72395527e-02, 1.63119938e-02, -7.87028819e-02, 5.96405799e-03, -1.07254557e-01, 5.50476201e-02, 7.30719492e-02, -2.76528765e-03, 1.20075233e-01, 9.06803012e-02, 1.69083755e-02, 8.87853727e-02, -8.03444013e-02, -3.62286530e-02, 2.41573863e-02, -1.11931819e-03, 1.34074792e-01, 1.11791342e-01, -4.64794189e-02, -2.47550290e-02, 2.30972208e-02, 1.42613769e-01, 6.61275685e-02, 1.46843672e-01, -2.30784565e-02, 5.35817184e-02, 4.16766144e-02, 7.29003474e-02, 9.38796774e-02, 4.33412679e-02, 9.43289921e-02, -5.47549613e-02, -2.48811976e-03, -5.44731207e-02, 2.90280189e-02, -8.33787844e-02, 7.47466162e-02, -6.73429146e-02, -1.30118892e-01, 7.52848759e-02, 2.60776039e-02, -3.31168883e-02, 7.99423009e-02, -9.89755318e-02, 1.06669948e-01, 1.05087861e-01, 2.73192376e-02, -9.25666243e-02, 3.19905207e-02, -1.19480863e-02, -1.14225738e-01, 7.53058270e-02, -4.47351299e-02, -4.40373272e-02, -9.54016671e-02, 1.39718920e-01, 3.02046835e-02, 1.16589732e-01, 6.65613264e-02, 6.54267818e-02, -2.31053792e-02, 1.97192486e-02, 4.81261760e-02, 8.23992789e-02, 4.71224561e-02, -8.81723389e-02, 1.14775635e-01, 9.97970179e-02, 2.17503980e-02, 3.20221819e-02, -1.34954378e-02, 5.43039292e-02, 4.00660709e-02, 8.24957564e-02, -2.24967673e-02, 1.12695053e-01, 1.08188614e-01, 1.01595543e-01, -9.20848176e-02, 9.07460302e-02, -6.30171299e-02, -1.19245365e-01, 1.32797912e-01, 6.40881881e-02, 2.63863504e-02, -2.62103863e-02, 8.05127434e-03, 1.28549799e-01, -9.77652669e-02, -2.51829512e-02, 9.50472280e-02, 3.32837775e-02, 6.96861893e-02, 2.43182611e-02, 3.61789688e-02, -4.24795710e-02, -5.34800515e-02, 2.32435893e-02, 3.28937471e-02, 3.51321660e-02, 1.88992266e-02, -3.32018062e-02, -1.04168467e-01, 6.75740931e-03, -2.06720382e-02, -1.99450422e-02, 3.07778381e-02, -1.79853179e-02, 9.24861133e-02, 7.32948408e-02, 3.21446583e-02, 9.55484584e-02, -4.54578996e-02, -4.48640361e-02, -2.15846859e-02, 3.03707104e-02, -4.45266627e-02, 1.08592108e-01, -1.43405855e-01, 6.88075423e-02, -3.64561155e-02, 8.38828161e-02, -1.18271068e-01, -2.48187617e-03, -5.53224273e-02, -6.41067922e-02, 2.53288392e-02, -1.12336399e-02, 1.86660024e-03, -5.58810914e-03, -1.48216978e-01, 4.20097262e-02, -1.18320815e-01, -7.13194311e-02, -3.78983356e-02, 9.00006071e-02, 1.99149400e-02, 7.38090202e-02, -1.04425172e-03, 6.16953261e-02, 5.75094521e-02, 5.63676693e-02, 1.06744394e-01, 4.30695191e-02, 7.85518363e-02, 8.74312147e-02, 7.01835454e-02, 3.17894444e-02, 2.41436320e-03, -1.82796400e-02, 8.41315079e-04, 6.14676550e-02, 1.71339549e-02, -1.41824745e-02, -3.37205715e-02, -3.86911305e-03, 1.55550158e-02, 3.11454870e-02, 2.52863183e-03, 2.20401026e-02, 9.34030581e-03, -2.11331770e-02, 2.91511845e-02, 8.81522521e-03, -2.62451768e-02, -1.34142876e-01, -2.35197037e-01, -1.97727233e-02, 4.54427302e-02, -3.39753889e-02, 3.28553170e-02, -1.05728358e-01, 8.69975463e-02, 3.67248356e-02, 1.52481506e-02, -5.71324825e-02, -1.13822299e-03, -3.40481848e-02, 9.24675763e-02, -3.20503004e-02, 7.24632666e-02, 1.41268065e-02, -4.10654917e-02, 1.86741725e-02, -1.64624881e-02, -7.32676499e-03, -8.51028040e-03, 1.56705026e-02, 2.37446092e-02, -4.24180627e-02, 6.32365048e-02, 1.87324360e-02, 2.99044661e-02, 1.27622513e-02, -4.86665480e-02, 2.39294465e-03, -7.60365948e-02, 3.76917794e-02, -5.76056680e-03, 1.27835587e-01, 4.67374846e-02, -3.40885073e-02, -8.52486119e-03, -1.37936110e-02, -9.49117634e-03, 1.16657317e-02, -8.13467428e-02, -6.30194740e-03, 5.66608198e-02, -4.14770283e-02, 7.98115656e-02, -2.51062326e-02, -6.55309111e-02, -2.73646656e-02, -4.33724485e-02, -1.01839498e-01, 3.05630565e-02, 8.49075243e-03, -5.55256121e-02, -8.87289718e-02, -1.18851334e-01, -8.18363279e-02, -1.14712968e-01, 1.01878546e-01, -9.77339745e-02, -4.51900400e-02, -1.03807608e-02, -1.02144619e-02, -1.76918097e-02, -8.65005478e-02, 1.27771627e-02, 2.17034742e-02, 4.70287278e-02, 2.76187988e-04, -1.68089986e-01, 4.92347926e-02, 3.96097451e-02, -3.36245261e-02, 2.39709355e-02, 2.06715148e-02, 2.97776796e-02, 6.06520027e-02, 1.28061354e-01, -5.79804145e-02, 1.14767991e-01, 5.43173030e-02, -1.08735055e-01, -6.27557039e-02, -7.79922083e-02, -4.39676680e-02, -7.32149258e-02, 4.66626463e-03, 2.72193109e-03, -5.71266338e-02, 9.82545316e-02, 9.85666364e-03, 5.33221290e-02, 1.18262783e-01, -2.81050093e-02, -8.17230195e-02, 2.14338806e-02, 8.43650699e-02, 1.12903491e-02, 3.08145676e-02, 5.30676395e-02, 3.67943719e-02, -1.07791357e-01, 2.29492178e-03, -8.69286880e-02, -6.97847977e-02, 3.10811563e-03, -4.07935902e-02, 1.70365423e-02, 8.01690947e-03, -8.99752304e-02, -8.81185085e-02, -2.45445152e-03, -4.25885431e-03, -1.67581812e-02, -1.08413093e-01, 1.05723135e-01, 5.00846580e-02, -5.83880283e-02, -4.72064763e-02, -6.62699640e-02, -4.75148261e-02, 2.60918192e-03, 1.10883452e-02, 1.78529136e-02, -3.13283056e-02, -1.86728965e-02, -6.74664229e-02, -5.38548268e-02, -6.60326285e-03, 1.37354368e-02, 1.01195328e-01, 8.13819617e-02, -1.41357379e-02, -4.71105240e-02, -1.03441797e-01, -2.67877560e-02, -9.89859030e-02, -6.19114600e-02, -9.07101706e-02, 2.77876407e-02, 3.77848260e-02, 5.07127605e-02, -4.69950587e-02, 5.28724305e-02, -1.14038505e-01, 5.07452115e-02, -5.07802255e-02, 2.01116055e-02, -4.83762063e-02, -1.14335027e-02, 1.26365479e-02, -1.43108919e-01, -1.59805119e-01, 5.00890352e-02, -7.14745894e-02, 7.09047988e-02, 1.01009384e-01, -3.42345722e-02, -4.65682223e-02, -1.97655000e-02, -1.33799434e-01, 1.07004493e-01, -1.45484030e-01, 1.92173459e-02, 2.85095461e-02, 1.60329923e-01, -1.04664341e-02, -5.97990677e-02, -5.69895506e-02, -7.11754784e-02, 8.58754851e-03, 1.52371358e-02, -8.55716392e-02, -6.59204870e-02, -5.51136807e-02, 5.48512861e-03, 2.24096030e-02, 6.00737073e-02, 1.48198366e-01, -3.15353796e-02, 9.76371299e-03, -5.24838790e-02, 4.36295606e-02, 8.85749757e-02, 1.80577915e-02, 5.33976033e-02, -7.98854306e-02, 1.05693594e-01, -6.68288246e-02, -2.67935321e-02, -7.48282298e-02, 7.82643110e-02, -1.81481056e-02, -1.24585539e-01, 5.02244197e-02, -2.49492414e-02, -6.09689802e-02, 9.39716026e-02, 1.09622478e-01, -3.11540682e-02, -1.66331958e-02, -2.69891694e-03, -7.71194994e-02, -1.69144850e-02, -2.99454145e-02, -4.73787002e-02, 2.20132861e-02, -8.43930095e-02, -2.27256605e-05, 5.33016473e-02, 5.27482703e-02, 1.14285555e-02, 5.65806478e-02, -9.23981890e-03, -5.69021003e-03, 7.55269527e-02, -1.17454976e-02, -5.04880324e-02, 4.52224649e-02, -5.19953296e-02, -1.26374513e-02, 9.82197449e-02, 1.03955030e-01, -5.72911613e-02, -3.37936878e-02, -2.12655384e-02, -1.03679091e-01, -1.19574787e-02, -3.15686762e-02, -7.55559802e-02, -2.05523577e-02, 3.86680737e-02, 6.41811788e-02, 1.08341664e-01, 5.48521578e-02, -1.07337728e-01, -1.69201456e-02, 1.38740316e-01, 2.01970115e-02, -7.41627859e-03, -4.83305864e-02, -1.43422382e-02, 2.30956022e-02, 5.17888442e-02, 1.75068397e-02, 1.13507919e-01, 1.43594155e-02, 7.19909184e-03, -9.84118953e-02, -5.04643247e-02, -9.02515929e-03, -3.95282097e-02, 1.28240371e-02, -4.08720523e-02, 4.77637053e-02, -6.41652429e-03, -4.52300198e-02, -2.47726887e-02, 1.07179061e-02, 1.61179975e-02, 3.02488077e-02, -4.67169248e-02, -4.96622128e-03, -6.54691411e-03, -4.56173811e-03, -2.35896986e-02, -6.14603423e-02, -2.85113556e-03, 3.63112278e-02, 7.77807310e-02, -2.28760857e-03, 8.06841999e-02, 5.01104072e-02, -2.72771493e-02, -1.46654351e-02, -2.58517973e-02, -6.12299284e-03, 3.53403715e-03, 9.91595630e-03, -5.49351890e-03, -2.02000886e-02, 5.12241349e-02, -2.28149835e-02, 2.87242308e-02, 5.31872734e-02, -3.91260721e-02, -4.10832204e-02, -9.11284331e-03, 1.30763605e-01, 4.74737436e-02, 1.69409439e-02, 1.25796814e-02, 1.92259550e-02, -6.84593618e-02, -1.88423730e-02, -5.03292456e-02, -3.85498367e-02, 5.82032911e-02, -3.37429941e-02, 8.38720351e-02, 7.39128441e-02, -1.65270418e-02, 8.26912280e-03, -6.91146404e-02, 5.11414446e-02, -1.07410457e-02, -2.43282579e-02, 3.77772935e-02, 1.60236377e-02, 3.75500061e-02, 1.41063025e-02, -2.49366090e-02, -4.27201167e-02, -8.27520713e-03, -4.96685971e-03, 4.91614603e-02, 1.37842875e-02, -3.56623344e-02, -9.65243205e-03, 1.11447154e-02, -5.79502247e-02, -8.63506645e-02, -4.93154768e-03, 5.86181283e-02, 4.20350172e-02, 1.24582341e-02, -7.89824426e-02, 5.07462472e-02, -2.60414146e-02, 6.21599145e-02, -5.55953048e-02, -9.75201055e-02, -2.35789712e-03, 3.62233445e-02, 3.63226538e-03, 5.54065816e-02, -1.21408151e-02, -4.35611643e-02, 1.17184827e-02, 1.27111059e-02, -1.50027033e-03, -6.90913424e-02, 4.08562832e-02, -4.28748317e-02, -4.16630358e-02, 4.96645086e-02, 5.13527691e-02, 7.71030113e-02, 5.18232062e-02, 4.68455218e-02, 1.30111433e-03, -4.50299447e-03, -9.58207324e-02, 6.94415048e-02, -2.06704549e-02, -5.58483042e-02, -4.93412390e-02, 2.61218827e-02, 1.67039037e-02, 1.53501080e-02, 1.85858412e-03, -8.43435377e-02, 3.22527774e-02, -1.85264889e-02, -6.49558082e-02, 1.70566011e-02, -1.46070374e-02, 2.36072745e-02, 3.25867794e-02, 1.47341480e-02, 1.10164456e-01, -1.72627214e-02, -7.46637862e-03, 8.58171955e-02, 3.64640728e-02, 8.68138149e-02, 2.36107707e-02, 5.28140962e-02, -8.47874582e-02, 6.64656386e-02, -9.29320604e-02, 1.81962419e-02, -3.53166349e-02, 1.77865829e-02, -9.93800238e-02, -2.18353886e-03, 6.36060834e-02, -1.92459449e-02, 3.60705964e-02, 6.94979429e-02, -4.45604734e-02, 5.77763915e-02, 5.10636270e-02, 2.52131727e-02, 3.29116806e-02, -3.61387581e-02, 8.97161104e-03, -2.10292228e-02, 5.94873242e-02, 4.98089124e-04, -5.17039606e-03, -8.27593803e-02, 7.99598545e-02, -6.93133771e-02, 7.43835866e-02, -2.39177812e-02, 2.31094752e-02, 8.91662901e-04, 1.97098404e-02, 4.16652411e-02, 1.03144333e-01, 5.46197183e-02, -5.76175330e-03, 1.64359377e-03, 4.88601439e-02, 1.86882000e-02, -1.33730099e-01, -1.08283479e-03, -9.46157333e-03, -5.84656410e-02, 2.13479754e-02, -3.01051494e-02, 6.04408607e-02, 4.97454032e-02, 4.76353280e-02, -3.83425690e-03, 2.22728681e-02, 7.88322985e-02, 1.32602612e-02, 5.50016686e-02, 5.77273034e-02, 2.35149581e-02, 3.77396420e-02, 4.84282374e-02, 6.81655183e-02, -1.10540511e-02, -3.77238169e-02, 2.26945640e-03, 6.22960739e-02, 3.50922570e-02, -1.07707130e-02, 8.40568841e-02, -3.61925401e-02, -7.25497529e-02, -4.09517363e-02, 2.56440639e-02, 3.56901740e-03, 4.88750078e-03, -1.12088338e-01, -1.29611105e-01, -6.15864992e-02, 1.97152793e-03, 2.17079502e-02, 2.44873818e-02, 2.22584568e-02, 1.04857229e-01, 2.98773181e-02, 3.08652851e-03, -6.29036203e-02, -1.96847320e-02, 2.40539312e-02, 1.08502004e-02, 5.64122833e-02, 1.15344614e-01, 4.37038243e-02, -1.44320562e-01, 6.05257638e-02, 4.96757738e-02, 2.38568373e-02, -8.71976465e-02, 3.12832110e-02, -1.07904956e-01, -7.64126629e-02, 9.29922834e-02, 1.59110092e-02, 8.82020444e-02, -5.36996126e-03, 3.34860524e-03, 4.36088219e-02, 1.85999684e-02, -3.14876623e-02, -2.65502799e-02, -2.20492259e-02, 3.36203799e-02, -1.65752333e-03, 4.21687141e-02, 1.41502265e-03, 5.96909896e-02, 8.43959972e-02, 4.82308911e-03, 5.95136769e-02, 1.26661814e-03, -5.29031642e-02, 7.16149285e-02, -1.67189892e-02, 3.07023060e-03, 1.63495000e-02, 4.04380038e-02, 2.78062467e-02, 6.07516468e-02, -1.99520541e-03, -6.71893507e-02, 5.37223071e-02, 2.75116302e-02, 2.58928966e-02, 7.65396357e-02, 2.04666285e-03, 2.73301154e-02, -1.67588964e-01, -3.43968123e-02, 1.48814917e-02, 3.79046798e-02, -1.10310614e-01, -8.18260312e-02, -9.36266258e-02, 7.19052702e-02, -3.40495892e-02, 6.64413422e-02, -8.60330388e-02, 9.77948233e-02, 5.00284731e-02, 4.27481830e-02, 1.02289198e-02, 1.13040395e-01, 2.04071552e-02, 1.22091677e-02, 4.44723405e-02, 5.63660488e-02, 5.55780344e-02, -1.19360127e-01, 7.56218657e-02, 3.13609000e-03, 1.66985020e-02, -7.27118403e-02, 5.32822795e-02, -1.09258490e-02, 8.26415196e-02, 9.45093110e-02, 1.65102743e-02, 1.05486356e-01, -3.49386991e-03, -5.84219061e-02, 4.11316454e-02, -1.25507042e-02, -6.70590550e-02, 5.60955219e-02, 9.80462506e-03, -8.74990690e-03, 5.66033088e-02, -9.41697285e-02, 2.44336929e-02, 7.93404356e-02, 6.27986789e-02, -6.15200140e-02, 6.92551136e-02, -5.04304282e-02, 3.88961956e-02, 5.34614474e-02, 2.23865230e-02, 2.80190036e-02, 1.56747758e-01, 1.07917510e-01, 9.85187888e-02, -1.98996328e-02, 4.75737788e-02, 8.33377987e-02, 8.96068811e-02, 6.37129545e-02, 4.05180715e-02, 1.23289458e-01, -1.36522219e-01, 4.27555181e-02, -6.97396025e-02, 2.92196162e-02, 7.69498870e-02, 7.70693421e-02, -3.92897129e-02, -7.22915158e-02, 1.34628206e-01, 2.93173391e-04, -1.63743808e-03, 1.06924109e-01, -5.44935688e-02, 1.27386302e-01, 1.14475682e-01, -2.93102637e-02, 3.69727314e-02, 8.35764408e-02, -2.30140910e-02, -3.11147049e-02, 1.42698586e-01, -3.94349843e-02, 5.99417686e-02, -1.33754343e-01, 1.58313259e-01, 1.32272512e-01, 1.04400575e-01, -5.53362407e-02, 5.75992279e-02, 1.87870371e-03, 2.92569716e-02, 4.93677966e-02, 7.00031519e-02, 5.57329319e-02, -3.25053819e-02, 2.32236594e-01, 1.11798033e-01, 1.15988620e-01, -7.86040425e-02, -8.53590518e-02, 8.19046423e-02, -8.43152106e-02, 1.00031048e-01, 4.28297892e-02, 1.11563094e-01, 1.68813080e-01, 1.34989798e-01, -1.22637503e-01, 1.45928413e-01, -8.52151737e-02, -7.74494186e-03, 6.88347667e-02, 1.17775612e-01, 1.03853317e-03, -2.23713964e-02, 7.09091872e-02, 4.02737744e-02, -4.09105644e-02, 6.54282868e-02, 6.40291497e-02, 6.08999655e-02, 3.65285091e-02, 9.80388671e-02, 5.02045564e-02, -3.34627694e-03, -4.80546728e-02, -1.10501230e-01, 1.41200647e-02, 3.43781081e-03, 6.12778887e-02, -2.40269061e-02, -5.87049238e-02, 1.10920690e-01, -2.73454264e-02, 3.33841816e-02, 4.82177250e-02, -4.95259166e-02, 1.07531734e-01, 1.17120996e-01, -1.32782143e-02, -1.10717438e-01, 4.45488654e-02, -2.72598751e-02, -1.18052494e-02, 6.53800890e-02, -3.33390459e-02, 1.00111194e-01, -6.99199736e-02, 9.87153575e-02, 6.85704947e-02, 4.91104983e-02, -6.52850866e-02, 1.18261036e-02, -2.47834306e-02, 8.51854831e-02, 7.60217831e-02, 5.84395602e-02, -1.52565837e-02, -7.96705410e-02, 1.58434082e-02, 5.50157987e-02, 1.47669435e-01, -8.27868059e-02, -6.24518394e-02, 1.08051471e-01, -4.28766459e-02, 5.93331158e-02, -5.57439066e-02, 6.47929534e-02, 9.03029889e-02, 8.83602127e-02, -4.67523485e-02, 6.53396547e-02, 9.05064046e-02, -1.96167789e-02, 3.32625769e-02, 5.30965365e-02, 4.28860411e-02, -2.42430717e-02, -1.57930553e-02, 1.01354606e-02, -3.05296201e-02, -1.32493554e-02, 1.31446436e-01, -3.86400670e-02, 1.25531694e-02, -4.40119877e-02, 1.89306214e-02, 8.82820878e-03, 1.67260636e-02, -1.36447072e-01, -4.85980660e-02, -8.30030441e-02, 7.91251287e-02, -6.79692766e-03, 1.93483055e-01, 9.59990993e-02, -3.84367369e-02, 4.20311131e-02, 4.35908474e-02, 2.80831996e-02, 8.71006176e-02, 7.34136477e-02, -5.03221154e-02, 9.69728827e-03, 8.30256566e-03, 5.02050482e-03, 3.68698798e-02, 2.27508396e-02, 1.75133371e-03, 3.54907960e-02, -8.80983844e-02, 1.33402785e-02, -7.92215765e-03, 8.23500194e-03, -3.05056330e-02, -2.76488345e-02, -1.84227396e-02, 1.13041392e-02, 5.13565429e-02, -3.29174660e-02, -4.47888300e-03, 2.22497154e-02, 3.02313548e-02, -1.15629584e-02, -4.67171632e-02, -3.75945754e-02, -4.52681852e-04, 1.07005231e-01, -1.31550618e-02, -4.82046045e-02, 6.41813651e-02, -1.78541094e-02, -4.65977192e-03, 1.74339134e-02, -1.10609762e-01, -2.23370753e-02, 3.71124893e-02, -3.31477611e-03, 1.38359908e-02, -4.32501687e-03, -7.94958696e-02, -5.64614348e-02, -6.94616884e-02, -8.06924999e-02, 4.06534299e-02, -4.81927805e-02, -2.19233762e-02, -6.88768402e-02, -3.62948664e-02, -2.59270222e-04, -1.56314392e-02, 1.04701787e-01, -5.57251237e-02, 6.56389371e-02, -1.81467887e-02, 4.39173318e-02, -8.39973316e-02, 1.55094629e-02, -2.37589739e-02, -7.49592036e-02, 1.84806753e-02, 2.10367367e-02, -5.15251756e-02, -1.25385582e-01, 2.16482580e-02, 6.92373188e-03, 3.64825577e-02, 1.04803126e-02, -1.53101822e-02, 8.66964832e-02, 3.36611904e-02, -7.40066618e-02, 9.22658816e-02, -3.60546121e-03, -6.95160851e-02, -1.01065360e-01, -7.08154142e-02, -4.46692556e-02, 9.67842191e-02, 1.65742182e-03, -1.50977969e-01, -6.15679547e-02, 8.14497098e-02, 2.47692112e-02, 4.39485200e-02, 7.98124969e-02, -8.60083401e-02, -5.85899726e-02, -7.17814863e-02, 1.21225640e-01, 4.16635089e-02, 9.35294386e-03, 8.71946588e-02, -5.49479127e-02, 3.22535858e-02, -2.96429154e-02, -9.21807438e-02, -8.39337409e-02, -1.32066816e-01, -6.46104738e-02, 1.24959815e-02, -1.03234872e-01, -5.56282848e-02, -7.28900433e-02, -5.10876924e-02, 5.71035258e-02, -1.59179047e-02, -1.76433343e-02, 7.46243224e-02, -2.72087399e-02, -1.96751747e-02, 4.37403889e-03, -6.35447737e-04, -6.31783083e-02, 2.36110911e-02, 1.26982490e-02, 6.32863045e-02, 6.75394982e-02, -8.31101835e-02, 1.86285935e-02, 3.58935744e-02, 4.97547612e-02, 1.51507678e-02, -4.10624631e-02, 9.78352576e-02, -5.83835989e-02, -1.49700483e-02, 4.61188033e-02, -1.33483473e-03, -1.77352000e-02, -1.56147406e-02, -1.58271223e-01, -4.21560928e-02, 5.41367196e-02, -2.42246427e-02, -3.15039679e-02, 7.17291981e-02, -1.04209758e-01, 7.83781894e-03, -7.59429182e-04, -2.59958487e-02, -1.07010286e-02, 1.51552958e-02, 5.96935861e-02, 1.47423431e-01, -9.99787226e-02, 4.56402786e-02, -6.74704388e-02, 6.85574114e-02, 4.13428359e-02, -1.09266303e-02, -1.70593206e-02, 6.85398653e-03, 1.01879887e-01, 4.65781540e-02, -1.81685567e-01, 1.76610537e-02, -7.39567354e-02, -2.01688886e-01, 2.92850961e-03, -1.23958550e-02, -1.00006601e-02, -2.54867356e-02, 1.53362397e-02, 3.35459486e-02, -8.08325857e-02, 4.23295423e-03, 1.21741602e-03, -2.57887561e-02, -1.09254131e-02, -2.45920494e-02, 4.89840657e-02, -1.16817363e-01, 5.96697405e-02, 2.47631799e-02, 3.04517616e-02, 4.22017537e-02, 9.28169873e-04, -1.46142961e-02, -7.98798129e-02, -1.68933980e-02, 8.41918886e-02, 5.47411144e-02, -1.28377040e-04, -5.05743623e-02, 4.25193738e-03, 1.86260492e-02, 2.85618491e-02, -9.48493630e-02, 3.31367962e-02, 2.79033277e-02, 1.30070886e-02, -1.32987937e-02, -4.44264449e-02, -4.42908034e-02, -3.84242497e-02, -2.53214091e-02, -3.66284847e-02, -1.25090536e-02, 1.12014255e-02, -5.56445867e-02, 9.35828127e-03, 2.17857156e-02, 2.77476683e-02, 3.23233171e-03, 4.91090724e-03, 7.66978338e-02, -1.04728257e-02, 8.82319268e-03, 7.21251890e-02, -8.04922283e-02, 2.03838106e-03, -6.78203627e-02, -9.24484432e-02, -1.90518517e-02, 5.23035740e-03, 1.14223711e-01, -6.97085410e-02, -2.78159101e-02, -6.49248958e-02, -1.05942013e-02, 6.27922341e-02, 9.14088637e-02, 4.74227301e-04, 6.72598109e-02, 8.55124276e-03, 1.74789578e-02, 6.64970372e-03, 9.47880968e-02, 6.64944947e-02, 2.24920106e-03, -1.00424811e-02, -2.47240644e-02, 9.31414403e-03, -8.79256651e-02, -2.06842441e-02, 3.62622514e-02, -2.33646464e-02, -6.69975951e-02, -3.42263374e-03, 3.08766738e-02, 1.98134277e-02, 2.57531032e-02, 2.11113337e-02, -3.66473384e-02, -6.90528154e-02, -3.65871750e-02, -1.22401148e-01, -5.63313812e-02, 1.25118434e-01, 2.67820079e-02, -1.51744811e-02, 1.96965430e-02, -1.85149349e-02, -3.56599912e-02, -3.49357799e-02, 3.38548049e-02, -3.94809283e-02, -2.15426423e-02, -1.02172486e-01, 4.99272645e-02, 2.33782791e-02, -1.35993143e-03, 6.93334732e-04, 7.71565214e-02, -1.59843415e-02, -3.70015576e-02, -3.57048884e-02, -1.58581790e-02, -1.74147915e-02, -3.14740986e-02, 3.45245227e-02, 1.36607038e-02, -8.08869153e-02, 5.81460446e-02, -5.73359281e-02, 1.75200682e-02, 5.91055816e-03, -3.73554300e-03, 1.98746324e-02, -7.85811711e-03, -3.50688398e-02, 5.10791205e-02, 3.60492207e-02, 1.38551714e-02, -6.64867163e-02, -1.13563679e-01, -5.81652783e-02, -2.72683762e-02, 1.78315304e-02, 4.64496985e-02, -5.97278252e-02, -9.25914124e-02, -2.17273727e-01, 8.23282357e-03, -5.00999726e-02, 1.33885760e-02, -1.15170944e-02, -2.28084791e-02, -8.25401098e-02, 6.81943074e-02, -2.57266797e-02, -6.31853566e-02, -5.09284325e-02, 2.33877427e-03, 4.01242264e-02, -5.71393482e-02, 4.26933914e-02, -4.72895801e-02, -5.12933582e-02, 3.12760696e-02, -1.39657095e-01, -4.97828461e-02, 4.41807061e-02, 9.11647677e-02, -1.25077099e-01, 7.43406713e-02, -6.41147718e-02, -7.93489739e-02, -7.05830380e-02, 6.90369159e-02, 1.69940479e-02, -1.33489385e-01, -3.15051749e-02, -9.26876906e-03, 6.14853762e-02, 4.90376167e-02, -1.89606734e-02, 7.76714161e-02, 4.62431554e-03, -7.38961399e-02, -7.90221319e-02, -3.05759683e-02, -8.97118524e-02, -1.87272150e-02, 4.72474284e-02, -4.28994671e-02, -1.65453274e-02, 7.62977824e-02, -8.68522376e-02, 9.23320875e-02, 6.61409348e-02, -3.45251262e-02, -4.82320078e-02, -1.09501928e-01, -8.18010494e-02, 6.91021308e-02, 7.49345571e-02, -3.03552742e-03, -3.94237190e-02, -3.36182192e-02, -3.18116248e-02, -1.50864990e-03, -2.19170507e-02, -5.71027137e-02, -2.30809487e-02, -7.76712522e-02, -2.65566055e-02, -7.97240213e-02, -4.24617045e-02, -3.59379239e-02, -6.46342114e-02, -1.71072613e-02, 2.88180374e-02, 3.29426117e-02, -2.70592384e-02, -7.15849549e-02, -2.55960412e-03, 2.18968038e-02, 2.11859327e-02, -2.73755752e-02, -1.82097144e-02, 4.03303541e-02, -4.44366671e-02, 9.63875325e-04, -9.40933358e-03, 2.57478151e-02, 1.47130549e-01, 4.26240228e-02, -1.13931842e-01, 2.28011776e-02, -7.69176781e-02, 1.57388505e-02, 4.28916290e-02, 8.89028162e-02, 2.41387598e-02, -2.98049999e-04, -9.77558363e-03, -9.66336951e-02, -1.30592322e-03, 7.71522615e-03, 1.11269187e-02, 2.33129933e-02, -8.89860988e-02, -1.05833679e-01, -2.56689247e-02, -5.71151935e-02, -2.06192210e-02, 2.37627351e-03, 6.92826044e-03, -6.47453293e-02, -4.41773683e-02, 4.85098176e-02, -1.08103208e-01, 6.57508969e-02, 7.80475792e-03, -4.91673574e-02, -3.65327969e-02, -1.28013581e-01, 1.34932995e-01, 2.66546998e-02, 4.72581796e-02, -3.93496118e-02, 8.35663080e-03, 6.80135265e-02, -3.26807760e-02, 3.91433388e-02, 1.72427911e-02, -5.52930776e-03, 8.37569591e-03, -3.36576812e-02, -8.56668949e-02, 2.36020088e-02, 4.78959002e-04, -4.61505949e-02, -2.39295810e-02, -1.62717570e-02, 3.25708948e-02, 4.97400723e-02, -4.55508381e-02, 2.77043320e-02, 2.68078521e-02, 1.24734333e-02, 3.04744393e-02, -4.74618301e-02, -1.68253053e-02, -7.78964609e-02, -1.40133034e-02, -4.06055227e-02, -6.56049177e-02, 1.02937119e-02, 6.25186116e-02, 1.02447413e-01, 1.84689999e-01, 2.21734829e-02, 1.73746571e-02, 3.70530970e-02, -1.32758588e-01, 1.01767361e-01, -5.94739020e-02, 2.16579321e-03, -1.71654075e-02, 4.58283946e-02, -2.40314230e-02, 4.44329111e-03, -6.80092536e-03, 1.72584262e-02, 1.09159295e-02, -9.14285257e-02, -1.09960148e-02, 1.96944047e-02, -7.08829437e-04, -3.84101979e-02, 1.02029769e-02, -2.19068490e-02, -6.40884563e-02, 8.28835890e-02, -5.64219132e-02, 6.23155273e-02, -2.31659599e-02, 5.68125807e-02, 2.72833649e-02, -2.56753303e-02, -6.08377419e-02, 3.17348167e-02, 8.30060020e-02, -6.04084544e-02, -5.84211387e-02, -1.52336568e-01, -5.62630706e-02, 2.47155577e-02, 2.42222752e-02, -2.48250999e-02, 2.54007056e-03, 6.07809871e-02, 4.09917310e-02, 3.30382809e-02, -1.69707127e-02, 4.31084074e-02, -1.64652720e-01, -3.61735234e-03, 1.22814029e-02, 2.01038290e-02, -7.81214535e-02, 2.90755890e-02, 3.14902477e-02, 2.51780767e-02, -1.84987802e-02, -3.56735364e-02, -2.21756138e-02, -2.27013659e-02, 1.61806773e-02, 3.20096849e-04, -5.08237928e-02, -1.66812092e-02, 1.27718717e-01, 7.94247687e-02, -1.54538110e-01, 2.21050754e-02, -7.12576741e-03, 7.01729814e-03, -4.76902463e-02, 1.17834397e-01, -8.07669107e-03, -3.39897200e-02, -3.40208784e-02, -4.82046641e-02, -2.18556356e-03, 2.14341059e-02, 2.62289215e-02, -5.50434180e-02, -9.77457594e-03, -8.83343145e-02, -2.29980033e-02, -1.71041712e-01, -2.35508895e-04, -5.58476746e-02, -2.70846523e-02, -2.35281531e-02, -5.71825132e-02, 6.21841773e-02, 2.63667218e-02, 6.18160293e-02, 4.20233607e-02, -7.95353018e-03, 3.08445748e-02, -3.40948291e-02, -1.46594778e-01, 3.26172709e-02, 8.33062828e-02, 9.26933659e-04, 4.33186814e-02, 2.07511615e-02, -3.72074172e-02, -4.12166938e-02, -2.63878983e-02, 5.41280583e-02, -7.14050606e-02, 4.82053906e-02, -3.50179300e-02, 3.50829363e-02, -2.04030730e-04, 8.28025267e-02, -2.30342988e-02, 3.49267921e-03, 6.50361227e-03, 6.32621720e-02, -4.84432653e-02, 1.48612019e-02, 2.37251725e-02, 1.81071064e-03, 1.13794416e-01, -4.81352769e-02, -4.50311229e-02, 1.81990582e-02, 2.00071298e-02, 7.65197128e-02, 2.41175722e-02, -1.70006731e-03, -6.12244532e-02, -1.19417801e-01, 2.87039299e-02, 2.76283268e-02, 4.64271791e-02, 9.63006727e-03, -1.36880919e-01, 1.24297291e-01, 3.33001018e-02, 3.00821066e-02, 3.94909829e-03, 5.07996529e-02, 2.85161212e-02, 5.79055399e-02, 2.29770951e-02, 4.94540222e-02, 7.04641119e-02, -1.89145550e-01, 4.01151627e-02, -3.69141959e-02, 2.17150915e-02, 3.07857734e-03, 3.54082659e-02, -2.86490060e-02, -2.60889698e-02, 8.45187679e-02, 1.68636739e-02, 6.46609217e-02, 3.81431431e-02, 1.07586876e-01, 3.53564806e-02, -1.40616909e-01, 6.96402881e-03, 1.48678310e-02, 6.92273006e-02, -2.03077719e-02, 1.00939889e-02, 7.60630984e-03, 3.29311341e-02, 2.57972796e-02, 2.96663772e-02, -4.68452983e-02, 1.57162518e-04, 3.68022285e-02, 1.23484489e-02, -1.30797504e-02, 4.89914380e-02, 1.04808407e-02, -4.01819609e-02, 1.05972691e-02, -1.42448340e-02, 1.67263821e-02, -4.49091569e-02, 2.22482607e-02, -5.00378534e-02, -1.10141821e-02, 3.67865227e-02, -6.99438453e-02, -3.84309725e-03, 6.47245673e-03, -1.92901623e-02, 1.06776707e-01, -3.55799273e-02, -8.84370040e-03, -1.15311608e-01, -2.96413809e-01, -1.14121437e-01, 2.61811577e-02, 6.29394352e-02, 2.66652275e-02, -1.00791544e-01, 8.56891423e-02, 7.82200918e-02, 2.13403832e-02, -9.74992812e-02, -3.22054066e-02, -1.50852595e-02, 2.01618075e-01, 1.70763843e-02, 9.06918868e-02, 1.68055315e-02, -8.52189735e-02, -1.28277084e-02, -1.27305090e-01, 1.25946086e-02, -1.07357055e-01, 8.11389834e-03, 2.39756275e-02, -6.41197115e-02, 7.88145810e-02, 4.00285907e-02, 3.90209556e-02, 3.71224657e-02, 9.46976710e-03, 2.45233346e-03, -6.73054606e-02, 9.77225900e-02, 2.17549633e-02, 1.34243265e-01, 1.00956811e-02, 1.40003655e-02, 4.69161160e-02, 5.98783046e-02, 1.28227670e-03, 1.77827496e-02, 9.66573656e-02, -5.29622585e-02, 3.24290134e-02, -4.03102003e-02, -3.95371914e-02, 2.04226784e-02, 1.11216009e-02, -3.44061814e-02, 2.50552911e-02, 8.06988031e-02, -7.82531500e-03, -2.07954086e-02, -1.19803555e-01, 3.25499400e-02, 4.62092236e-02, 3.16862836e-02, -8.10517278e-03, -2.38019833e-03, -2.41328143e-02, 3.68474163e-02, -5.96877337e-02, -1.19224697e-01, 3.97226028e-02, 1.36590973e-02, 8.51482004e-02, -3.68801840e-02, -5.55782691e-02, -9.99037549e-03, 4.03756872e-02, -9.45154428e-02, 9.11365822e-02, 1.44733880e-02, -6.71040267e-02, -3.64211504e-03, -1.83559605e-03, -1.91701334e-02, 3.35419923e-02, -1.10240029e-02, -1.53464302e-02, -1.07450178e-02, -6.82172999e-02, -7.54508516e-03, -3.56436484e-02, 3.40763293e-02, 1.76031198e-02, 3.04413978e-02, -1.23253642e-02, -4.36061919e-02, 4.66469936e-02, 4.32085991e-03, -5.35622705e-03, -5.24169691e-02, -6.37561232e-02, -6.67428365e-03, -7.38629699e-02, -3.02894693e-02, -1.42185427e-02, 1.01351991e-01, -4.92018163e-02, 4.42491844e-02, -8.72592777e-02, 3.79483425e-03, 2.39187796e-02, 2.62857992e-02, -1.72013596e-01, -4.47837524e-02, -9.28184986e-02, -1.74874533e-02, 5.52396961e-02, -4.82249260e-02, -4.83430456e-03, -6.92483038e-02, -5.30372411e-02, -9.70414504e-02, 3.31554525e-02, -1.87364891e-02, -1.17243886e-01, -7.22247437e-02, -6.04145601e-02, -6.06988743e-02, -2.66159680e-02, 1.07079772e-02, -6.98482292e-03, -3.54545005e-02, -1.07008897e-01, -8.83485526e-02, -6.17047250e-02, 1.06490873e-01, 1.01703867e-01, -4.54808921e-02, -4.57358733e-02, 1.60493236e-02, -8.18073824e-02, 2.38397233e-02, 5.22176921e-02, -5.19630387e-02, 9.53901857e-02, -3.35606234e-03, -8.21736548e-03, 3.33147077e-03, -2.40503182e-03, -8.84713233e-02, -3.29287490e-03, -3.91152017e-02, -4.65144441e-02, -6.30501062e-02, -1.52004592e-03, -3.36751938e-02, -1.87329594e-02, 5.58120273e-02, 7.59201124e-02, 9.59378760e-03, 4.71265800e-02, -7.32750744e-02, 2.96339560e-02, -1.22063020e-02, -6.27502054e-02, -5.27103320e-02, -1.48533154e-02, -1.02520183e-01, 3.43872458e-02, 1.62724254e-03, 4.07908186e-02, -3.39572644e-03, -9.35000852e-02, -1.52801588e-01, -5.02892397e-02, -5.17047159e-02, -5.01982048e-02, -3.42796035e-02, -1.28727406e-01, -6.74621463e-02, -5.77934310e-02, -6.62395731e-02, -5.81452698e-02, -3.66852358e-02, 3.30501795e-02, -1.87813882e-02, 4.07136045e-02, -1.89483166e-02, -3.28580588e-02, -4.00252119e-02, -2.39736922e-02, -2.92527881e-02, 3.75881605e-02, -3.40571860e-03, -1.05797969e-01, -1.53128833e-01, -3.13546360e-02, -9.18186754e-02, 2.45583225e-02, 5.92653900e-02, 1.32078081e-01, -4.51271199e-02, 2.61945687e-02, -2.42707189e-02, 3.46191078e-02, -6.07010983e-02, 1.89309977e-02, 5.79122640e-03, -1.39265135e-01, -1.35992337e-02, -1.61740072e-02, 5.57412207e-02, -3.46081853e-02, -1.15555702e-02, 3.08768009e-03, -1.29382163e-01, -5.80058135e-02, 8.99248570e-03, -5.46811111e-02, 1.90198869e-02, -3.74881774e-02, 3.87652665e-02, -1.46895036e-01, -4.18508947e-02, 2.85730567e-02, -4.44984883e-02, 4.06435393e-02, -1.09825777e-02, 2.83499565e-02, 3.94023210e-02, -1.31969646e-01, 5.48430998e-03, 2.67216973e-02, -1.01263516e-01, -4.32525836e-02, -1.12621628e-01, 1.37331173e-01, 6.89314306e-02, 4.84807640e-02, 1.14076762e-02, 1.95871182e-02, 4.37696204e-02, -3.73689272e-02, -1.29143298e-01, -2.54252013e-02, 5.11837639e-02, 4.41468097e-02, -4.66687195e-02, -2.50841882e-02, 1.24422349e-01, -3.48787643e-02, 3.00323162e-02, -9.91613790e-03, 4.87949103e-02, 2.52084266e-02, 3.80670801e-02, -2.98607647e-02, -3.92163880e-02, 3.56034632e-03, -8.50933418e-02, -2.33991947e-02, 3.72932404e-02, 1.50272856e-02, 3.41194682e-02, -1.23126409e-03, -4.15468812e-02, -7.63728544e-02, -1.42371319e-02, 3.70959826e-02, -1.08914608e-02, -1.66449777e-03, 1.19630620e-02, -2.55576189e-04, -2.52969209e-02, 1.12953531e-02, -2.78448965e-02, -9.92370956e-03, 4.06959355e-02, -8.86922628e-02, -3.77812311e-02, 4.29872889e-03, 1.75234098e-02, 6.92588314e-02, 2.41289530e-02, -7.30351079e-03, -4.59488183e-02, -1.07361577e-01, 1.01559665e-02, -6.70813993e-02, 5.00316583e-02, -7.58201405e-02, 1.16830245e-02, -1.67673249e-02, 1.74885858e-02, -9.68525708e-02, -1.98595062e-01, -3.65026854e-02, 8.44578166e-03, -9.33376998e-02, 2.70358659e-02, -1.14814565e-01, -6.50145188e-02, 7.05828667e-02, 2.24971604e-02, -1.08855926e-02, 2.39189696e-02, 1.94449276e-02, -9.65961907e-03, 4.79486920e-02, 1.02210995e-02, -1.74151268e-02, -1.06177777e-01, -4.50257584e-02, -5.52728921e-02, -2.35378724e-02, -6.54627010e-02, -4.72897366e-02, -3.29809412e-02, -5.66089936e-02, -4.78528738e-02, -2.81030796e-02, 2.33900659e-02, -9.46148485e-02, 3.67975887e-03, 2.39587110e-03, -2.05181036e-02, 2.20540818e-02, 4.91675884e-02, 8.64791498e-02, -4.36393209e-02, -2.82614361e-02, 3.30628008e-02, -1.64439774e-03, 8.59238282e-02, 1.51935220e-02, -2.73176581e-02, -3.52920406e-02, -2.73490399e-02, -9.98939574e-02, 2.48474572e-02, -5.75271845e-02, 1.81357041e-02, -9.62567702e-03, 1.25773288e-02, -3.93547714e-02, -2.98006460e-02, -3.57694291e-02, -2.07610969e-02, -2.53660860e-03, -4.28175833e-03, -1.05401324e-02, 2.44049355e-02, 1.35972109e-02, -3.31063308e-02, -2.33553573e-02, 2.27038888e-03, -5.67560978e-02, -6.29486293e-02, -4.23052832e-02, 1.45494975e-02, -2.47507077e-02, 3.95042673e-02, 2.84074303e-02, 3.50984782e-02, 1.54905196e-04, -5.55814467e-02, -3.13854069e-02, -4.87638917e-03, -1.22372575e-01, -6.79188743e-02, 3.66991572e-02, 9.47816968e-02, -3.67856063e-02, -3.86906415e-02, -5.03189191e-02, -2.80068927e-02, 5.97868972e-02, -7.04084933e-02, 6.57982603e-02, 1.44827832e-02, -2.45093629e-02, -5.01069240e-02, -6.40967628e-03, -1.04681596e-01, -4.18670326e-02, 4.94151264e-02, -5.78036085e-02, -1.03957010e-02, -5.76959439e-02, 1.16269581e-01, -3.44037861e-02, 8.80804565e-03, 5.99222891e-02, -8.62265825e-02, 6.64960369e-02, -3.11918668e-02, -2.58352961e-02, -1.21133082e-01, 8.16051587e-02, -4.95197065e-02, 8.48679319e-02, -7.51646236e-02, 7.12141469e-02, 4.51088063e-02, 3.45005132e-02, -5.60944807e-03, 4.40275930e-02, 2.70325169e-02, -5.39558753e-02, -5.24074771e-02, -5.79356998e-02, 2.07445510e-02, -1.47950184e-02, 4.65402603e-02, -1.68767586e-01, -6.82378560e-02, 7.51124769e-02, -7.24445954e-02, 5.65784462e-02, 5.02284691e-02, 5.86406104e-02, -5.21518663e-02, 2.59172749e-02, -5.31779975e-02, 6.95585459e-02, 7.87518248e-02, 1.75597146e-02, 1.58049557e-02, -1.58024933e-02, 3.80540974e-02, -5.14248013e-02, -8.69039148e-02, 2.84640919e-02, -3.79494913e-02, -7.11395056e-04, -1.66254759e-01, 1.54776801e-03, -2.28448454e-02, -6.11252114e-02, -5.41071594e-03, -1.18111037e-01, -8.05651695e-02, 7.27019683e-02, -4.26822044e-02, -5.63286133e-02, -7.24776760e-02, -1.84611157e-01, -7.23185465e-02, -4.68917340e-02, 6.63968697e-02, -5.61672151e-02, -9.49701145e-02, -8.73969495e-03, -2.91555375e-02, -3.82750593e-02, 2.04112250e-02, 9.71148536e-03, 1.22510411e-01, 7.24257678e-02, 6.42540827e-02, -4.03773971e-02, -3.17607932e-02, 8.69082138e-02, -1.16489425e-01, -3.06931753e-02, -1.01770476e-01, 4.72924998e-03, 4.54299524e-02, 2.83362363e-02, -5.75802289e-02, 6.34851903e-02, -1.50145427e-03, -1.13902211e-01, -8.19211155e-02, -8.20269659e-02, -2.62051746e-02, -3.34090117e-04, 1.30108474e-02, -3.05447225e-02, -1.30081013e-01, 7.59620145e-02, 7.10464921e-03, 8.92859697e-02, 5.56027703e-02, -4.17648703e-02, -1.57883670e-02, -4.98040989e-02, 4.55018952e-02, 6.47192150e-02, 6.12585917e-02, 2.26836223e-02, 1.53688854e-02, -1.04470573e-01, -1.29321124e-03, -3.28704938e-02, -2.35899929e-02, -2.60664765e-02, -1.56013016e-02, 1.83588471e-02, -2.79186480e-02, -4.42534089e-02, -1.09666036e-02, -5.87738026e-03, -6.10847957e-02, -5.42764813e-02, -1.55907338e-02, 6.91844523e-02, -9.30304229e-02, -8.02066848e-02, -3.09703709e-03, -8.89473036e-03, -1.53660364e-02, 2.45138388e-02, 3.83154936e-02, 8.77282172e-02, -5.37649430e-02, -4.87521775e-02, -2.90944688e-02, -9.81079135e-03, 2.26246342e-02, -4.08486128e-02, -8.79101306e-02, 3.94292511e-02, -4.35522906e-02, -2.35824799e-03, -3.13130952e-02, 1.21069334e-01, -4.31422032e-02, 1.89856775e-02, -1.46829531e-01, -2.73111332e-02, 4.73575331e-02, -3.62458751e-02, 3.06411851e-02, 2.48045288e-02, -3.60469148e-02, -1.22191496e-01, -4.30085100e-02, -6.78998530e-02, -2.65100785e-02, 2.33294498e-02, 3.15586776e-02, -5.30280955e-02, -1.28437569e-02, 9.10353586e-02, -2.52155382e-02, 9.66416821e-02, 3.40473559e-03, -9.48680639e-02, -1.96680967e-02, -7.73207378e-03, -2.11519022e-02, 4.15266082e-02, 1.01111665e-01, 2.19609477e-02, -8.84197354e-02, -3.03526931e-02, -5.62535562e-02, -2.73446809e-03, -4.65340819e-03, 8.33633915e-03, 1.17471414e-02, 1.02934372e-02, -1.19076908e-01, -2.32698806e-02, -1.69919841e-02, -1.45647461e-02, 7.24809766e-02, -1.01942211e-01, -4.30893414e-02, 7.59082958e-02, -1.72967464e-02, -3.85768712e-02, -4.15722504e-02, -2.31349133e-02, -1.07431471e-01, -1.34664932e-02, 4.13369387e-02, 2.17637513e-02, -7.87774324e-02, -3.49029936e-02, -5.35366945e-02, -4.29155417e-02, -2.98373979e-02, -1.18488580e-01, -5.84833026e-02, 7.21641108e-02, -3.91327718e-04, -6.89477250e-02, -1.03704773e-01, 1.17971018e-01, -6.77736178e-02, -9.60580111e-02, -1.78476013e-02, -7.77168646e-02, 2.18784716e-02, 4.00331803e-02, -1.68769993e-02, 6.80902228e-02, -6.45426214e-02, -1.02803342e-01, -3.23787630e-02, 3.66479866e-02, -2.83400044e-02, -5.91967106e-02, 2.98135225e-02, -1.02089249e-01, -1.13784060e-01, 8.33244547e-02, -4.84268405e-02, 1.17623061e-01, 2.80291717e-02, -3.89092378e-02, -5.37433773e-02, -5.90646751e-02, -3.70142050e-02, 5.67143075e-02, 7.26253167e-02, 5.98562397e-02, -6.73768967e-02, -2.74144523e-02, 3.28986011e-02, 7.00187823e-03, -5.74679188e-02, -3.59305702e-02, -1.04052782e-01, 4.90150154e-02, -2.65828282e-01, -4.97978255e-02, -2.54015857e-03, -2.93362550e-02, -1.80858392e-02, 1.23775024e-02, 3.82605419e-02, 7.53460824e-02, -9.15647224e-02, 1.64825376e-02, -7.40675314e-04, 6.73664510e-02, -6.10543787e-02, 3.42337340e-02, -3.63817140e-02, 1.93333172e-03, -1.17288560e-01, -4.29215841e-02, -2.17129234e-02, -1.95220448e-02, -1.26448244e-01, -8.66645575e-02, -4.14962359e-02, 7.39853680e-02, 3.96733098e-02, 6.45639524e-02, -4.39271033e-02, 1.38121262e-01, 2.32101083e-02, 3.85417715e-02, -1.71689764e-02, -2.68989764e-02, -5.34241041e-03, -4.06075716e-02, 4.97581288e-02, 8.10773149e-02, -1.30209804e-01, -1.19704731e-01, 6.64759725e-02, 3.52436639e-02, 6.87764362e-02, -1.62044391e-01, 4.57733497e-02, 2.13786215e-02, -2.64152465e-03, 8.55221078e-02, -5.29688038e-02, 8.20681825e-02, 2.93673109e-02, -2.53745466e-02, 5.12684658e-02, -3.08503816e-03, -1.84850674e-02, 5.29141165e-02, 6.10378236e-02, 3.82089280e-02, -9.37536731e-03, -2.27746945e-02, -3.97443771e-02, 1.14209605e-02, 4.02169526e-02, -1.08482160e-01, -3.42060141e-02, -1.12439901e-01, 3.65455672e-02, 7.27391914e-02, -1.91298705e-02, 1.01615209e-02, 6.13278523e-02, 3.23877968e-02, 5.74248470e-03, 3.46051678e-02, -1.05729647e-01, -5.29851317e-02, -7.08510950e-02, -2.81482711e-02, -3.77900749e-02, 1.90114304e-02, 2.21892055e-02, -8.35891515e-02, -5.07503524e-02, 1.12538459e-02, -1.41823411e-01, -1.61048900e-02, -7.48948082e-02, -1.57101860e-03, -1.33550107e-01, 5.78536987e-02, -4.95971320e-03, 6.16311911e-04, -1.19709201e-01, 1.21430896e-01, 2.15164647e-02, 2.27816943e-02, 3.90397124e-02, 9.83853862e-02, 3.86414342e-02, 6.39711246e-02, 3.07709881e-04, 9.21733826e-02, -4.22809720e-02, -1.00522175e-01, 5.53703576e-04, 1.87416840e-02, -2.15806579e-03, 2.30574384e-02, -9.20137577e-03, 3.28568965e-02, -3.61731574e-02, 7.52048269e-02, -3.94882858e-02, 3.05451956e-02, 2.52837725e-02, -1.44685492e-01, -2.55463365e-02, -1.93017367e-02, 1.04142368e-01, 1.63892712e-02, 1.45153776e-01, 1.12170972e-01, 1.28094070e-02, -5.67445122e-02, -1.81351695e-02, -2.54826862e-02, -8.71370826e-03, -7.73591399e-02, -5.98447844e-02, 8.87183324e-02, -4.04683594e-03, -4.29110369e-03, -3.93574499e-02, -4.21692953e-02, -2.17039566e-02, -1.47376582e-02, 6.40750583e-03, 2.26865020e-02, 8.53970367e-03, 4.54633273e-02, -5.98199144e-02, -3.69948111e-02, -1.29454555e-02, -4.22280133e-02, 3.00789643e-02, 8.01054016e-03, -1.66188963e-02, -3.41122374e-02, -2.37985458e-02, 2.96779312e-02, 1.80057846e-02, 4.97690663e-02, -2.95775644e-02, -1.62197999e-03, 3.34091634e-02, -4.37698625e-02, -6.84613809e-02, 9.31163728e-02, 1.90328062e-02, 2.87826732e-02, -3.74303944e-02, 2.66165193e-02, -1.36115151e-02, 1.60543360e-02, -1.00117303e-01, 2.55321115e-02, 1.25851380e-02, -8.61179456e-02, 4.14625509e-03, 8.45378414e-02, -1.59273371e-02, -8.55417997e-02, -1.10547645e-02, -6.06907047e-02, -5.13973236e-02, 5.00253290e-02, 3.55671644e-02, 1.53621687e-02, 4.47223447e-02, -4.23336960e-02, -4.20489497e-02, -8.16889256e-02, -8.93630460e-03, 1.45620275e-02, 1.28790453e-01, 4.03162315e-02, -7.19652548e-02, -3.93421464e-02, -1.87041759e-02, 2.01538075e-02, -4.01537344e-02, -3.37513722e-02, -3.31387529e-03, -1.92545786e-01, -1.24379732e-01, 9.00203479e-04, 6.96430821e-03, -6.26617670e-02, -5.03047090e-03, -5.24678528e-02, -3.47277895e-03, 3.99108455e-02, 2.65753604e-02, 3.33528817e-02, -4.10165228e-02, 3.30804512e-02, -1.71430752e-01, -5.73698655e-02, 6.51410818e-02, 2.98240930e-02, -9.11242366e-02, -3.92732508e-02, 3.88375781e-02, 6.89166114e-02, 5.43523915e-02, 2.71226615e-02, -1.40743004e-02, 1.05864275e-02, -4.94646430e-02, 1.25361634e-02, -3.07227504e-02, 2.81171203e-02, -1.43766869e-02, -2.69287806e-02, 7.89153725e-02, -1.05976209e-01, 6.51495308e-02, -8.18499830e-03, -4.92305087e-04, 3.11096907e-02, -2.57285917e-03, -9.25896391e-02, -6.79228008e-02, -3.62357311e-02, 9.59460530e-03, 7.20626861e-03, 1.43194739e-02, -5.33863269e-02, -6.36401549e-02, 5.18012382e-02, -5.85419424e-02, 3.09477486e-02, 1.81759018e-02, 8.73446744e-03, -1.47200758e-02, 1.62240751e-02, 1.00188414e-02, 2.91895326e-02, -9.48460074e-05, -6.97392877e-03, -3.59879397e-02, -1.72437966e-01, 3.07953563e-02, -6.06933273e-02, -4.81332392e-02, -2.80421553e-03, -6.60375953e-02, 5.79667874e-02, 3.00469510e-02, 5.02767302e-02, -5.28815277e-02, -1.11290462e-01, 3.89266871e-02, -1.62694845e-02, -3.48458551e-02, 5.82491271e-02, 5.32102361e-02, -8.71543661e-02, 1.66128669e-02, -2.22396143e-02, -2.76346859e-02, -9.72017571e-02, -3.29376454e-03, 7.25148618e-02, -6.35603443e-03, -5.27942367e-02, -1.26247376e-01, -9.09886211e-02, 1.42793003e-02, 3.69108617e-02, -1.65053867e-02, 5.09246252e-02, 1.01919293e-01, -7.45246112e-02, -3.46021652e-02, -4.02400410e-03, -1.18710332e-01, 2.28789151e-02, -1.47042572e-01, -6.43043444e-02, 5.83924130e-02, 6.03362136e-02, -4.68338430e-02, 4.82460782e-02, 4.82327826e-02, 3.65506299e-02, -2.47370396e-02, -1.21965278e-02, -6.71088472e-02, 6.06863061e-03, 2.24128012e-02, -8.07812437e-02, -4.90113087e-02, 4.60663550e-02, 1.86900375e-04, 4.82269898e-02, 4.17050533e-02, 2.90508941e-02, -4.29243036e-02, -1.44501748e-02, 7.01463223e-02, 2.77146380e-02, -1.80697404e-02, 4.53368947e-02, 7.76267797e-02, -9.97169539e-02, -5.99302761e-02, 1.26401265e-03, -3.45898271e-02, 1.18394978e-02, -3.42153665e-03, 5.61671294e-02, -1.16220035e-01, -7.51400217e-02, -2.12624092e-02, -2.13721786e-02, 7.39424536e-03, 2.25800974e-03, 4.44369502e-02, -3.45378509e-03, -1.17616747e-02, 7.87799526e-03, -2.22373958e-04, -4.20751632e-04, -2.77848542e-02, -3.73239852e-02, -5.77872582e-02, -8.47426504e-02, 3.78684737e-02, 5.33051882e-03, -1.74833778e-02, -7.55283460e-02, -8.80900472e-02, -9.66518745e-02, 1.45258345e-02, -3.71284410e-03, -7.18676597e-02, 2.00527739e-02, 4.12556306e-02, 9.27476212e-03, -9.63243991e-02, 2.55930033e-02, -8.08347249e-04, 3.04160528e-02, -3.16836201e-02, 5.46346139e-03, -1.01430174e-02, -7.72081688e-03, 7.35833198e-02, 2.55393237e-02, -1.24555714e-02, -9.20466632e-02, 8.47051293e-03, 5.49363298e-03, -7.74878543e-03, 3.64389122e-02, -2.53901202e-02, -2.38485597e-02, -5.84456734e-02, -1.12455385e-02, 5.22788614e-03, -8.33190084e-02, 1.58686731e-02, 6.63679913e-02, -1.79196652e-02, -4.34715003e-02, 9.21350159e-03, -3.63282450e-02, -1.83940008e-02, 7.50490576e-02, -6.31035939e-02, 3.49573158e-02, -1.10807577e-02, -5.47772758e-02, -3.22516821e-03, 4.96014543e-02, -3.12485937e-02, 3.78364846e-02, -2.66959853e-02, -2.10109912e-02, 9.51564461e-02, 2.26824470e-02, 1.77827612e-01, -8.98823887e-02, -9.19453055e-02, 5.32991067e-02, 3.79502214e-02, 8.09840783e-02, -2.35213563e-02, 1.84298363e-02, 8.42301548e-03, -1.17273562e-01, 5.20163542e-03, -3.23335975e-02, -1.05831742e-01, 5.72624058e-02, 4.29056920e-02, -5.84584437e-02, -2.60659531e-02, -8.49089697e-02, -2.62844115e-02, 7.08794221e-02, -5.13643026e-02, -1.13018719e-03, 3.75357717e-02, 8.17096457e-02, -1.20147802e-02, -3.34320366e-02, -6.55715466e-02, -2.47394629e-02, 4.04473133e-02, -4.40405868e-02, -1.89261902e-02, -1.25362836e-02, 7.32547343e-02, 1.32056758e-01, 1.08943172e-01, 7.50615261e-03, -2.14565117e-02, -8.04317594e-02, 5.22154309e-02, -1.72201414e-02, 5.13755977e-02, -2.77836788e-02, -3.19069289e-02, -1.47618055e-02, 9.01791155e-02, -5.56813218e-02, -5.11760712e-02, -2.78612245e-02, 1.63821895e-02, -3.24369110e-02, 1.60308257e-02, -1.85095258e-02, -2.31012609e-02, 6.37766048e-02, 7.45112523e-02, -4.04159203e-02, 2.09057201e-02, -2.17706189e-02, -1.60312310e-01, 1.54207096e-01, 3.99011411e-02, -4.51209359e-02, 2.36977115e-02, -6.52928054e-02, -2.06517614e-02, -1.53059885e-02, -8.89830478e-03, -8.56314823e-02, -3.65773998e-02, -5.29492944e-02, 3.36506218e-02, 1.94232967e-02, 6.26686141e-02, 5.04006725e-03, -1.51364114e-02, -7.24318326e-02, -5.64016029e-02, -5.45934886e-02, 2.59246863e-02, 4.61399853e-02, 2.30309553e-02, -4.65297652e-03, -7.56800473e-02, -1.37261711e-02, 5.59769422e-02, 5.89154325e-02, -7.70229772e-02, -7.91927800e-02, 4.97931615e-02, -5.76293245e-02, 4.03040908e-02, 2.43797544e-02, -2.63518747e-02, 2.77523827e-02, 1.49140665e-02, -3.82276960e-02, -8.42989981e-03, 5.26489131e-02, -3.41399647e-02, -4.13412675e-02, 1.54589443e-02, -2.63653137e-02, -1.30254850e-01, 5.67142926e-02, -4.81205508e-02, 3.25406268e-02, 4.21250658e-03, -2.80123837e-02, -4.23376188e-02, -6.70760646e-02, 5.00930697e-02, -7.15938909e-03, 1.00326687e-02, 4.28441679e-03, -5.49710691e-02, -6.98115528e-02, -9.12598521e-02, -4.90291566e-02, -4.93028481e-03, 6.50248006e-02, -5.80432974e-02, -2.52561066e-02, 9.52145234e-02, -4.92516048e-02, -9.29013733e-03, 7.74128456e-03, 6.79748505e-02, -4.61888835e-02, -4.36582044e-02, 6.91894740e-02, -8.09963867e-02, -7.90640130e-04, -1.59078315e-02, -2.60866596e-03, -2.82785483e-02, -4.65788953e-02, 5.57616353e-02, 1.87474880e-02, -1.86140370e-02, 4.65134867e-02, -1.69108007e-02, -2.03263536e-02, 3.00281420e-02, 5.77709638e-03, 3.59503133e-03, 5.38333654e-02, -6.81735529e-03, -1.24845160e-02, 5.12643233e-02, 2.36360840e-02, -4.01121844e-03, 2.81384662e-02, -1.08723201e-01, 6.48396183e-03, 3.10139824e-03, 3.55321020e-02, -8.26831013e-02, 5.74450493e-02, 2.11146846e-02, -4.54617031e-02, -3.41257751e-02, -5.87378535e-03, -4.38007675e-02, -3.70700657e-02, 1.07431542e-02, -9.60431099e-02, -9.28532891e-03, 6.33578598e-02, -9.74613652e-02, 8.92494023e-02, 4.25013267e-02, -8.38464946e-02, -9.33695585e-02, 2.71190703e-02, 7.65908435e-02, 5.57895340e-02, -1.50531176e-02, 7.02464283e-02, -1.33402378e-03, 6.27153143e-02, -4.58413847e-02, -4.30150032e-02, -1.53837455e-02, -1.05693907e-01, -3.83250006e-02, 8.76426548e-02, -8.82282928e-02, -4.70578596e-02, -3.96529697e-02, -6.87989667e-02, 5.27907982e-02, 9.77227464e-04, 6.77700862e-02, 1.10043567e-02, -8.05903450e-02, 1.72384805e-03, 8.27181805e-03, 6.86724633e-02, -1.17880255e-02, -3.88727635e-02, -4.45648050e-03, -1.12802563e-02, -6.05319403e-02, -8.20161626e-02, -8.90321508e-02, 3.37150693e-02, 6.42855838e-02, -5.98147977e-03, 4.32166681e-02, 1.16717266e-02, -1.76210497e-02, 6.46392405e-02, -3.85440923e-02, 6.78886324e-02, -8.72275159e-02, 2.40539983e-02, -3.86713296e-02, -3.95706370e-02, 1.18638668e-02, -3.55084091e-02, 1.64752174e-02, 1.60065554e-02, -1.30656838e-01, -1.09336473e-01, 1.30319186e-02, 2.94130482e-02, 5.14479727e-02, 7.11496745e-04, 2.32479069e-03, 1.01569630e-01, 3.00602149e-03, 5.84205613e-02, 1.10063646e-02, 6.13283627e-02, -2.48564389e-02, 2.78420039e-02, 2.03077458e-02, -5.10846116e-02, -4.14397120e-02, -6.68122945e-03, -3.13598923e-02, -1.50084030e-02, -8.90143961e-03, 8.73273145e-03, -8.05965737e-02, 6.78872615e-02, 4.19013426e-02, 2.18455102e-02, 3.36626396e-02, -1.15596436e-01, -4.45120633e-02, 6.73137680e-02, -2.58569196e-02, -2.06719078e-02, -4.28104177e-02, -5.79090379e-02, -3.54625545e-02, 7.79965445e-02, -4.25212160e-02, -3.58280586e-03, 3.98634700e-03, 5.51900687e-03, 4.05963100e-02, -2.44205538e-02, 2.65387017e-02, -1.87924374e-02, -6.94475323e-02, -2.48534270e-02, -6.45852312e-02, -5.32912090e-02, 1.92689020e-02, 6.88116159e-03, -4.52251807e-02, 2.44279522e-02, 6.73276419e-03, -2.46703345e-02, -9.64790508e-02, 7.38331154e-02, -4.60034013e-02, -3.52906585e-02, -3.51876244e-02, 2.00861413e-02, 5.26268110e-02, 1.46419508e-02, -5.27995564e-02, 2.03166418e-02, -5.03605716e-02, -1.22933097e-01, -1.73477083e-02, -4.83576506e-02, -1.22100981e-02, 4.48693596e-02, -5.11487722e-02, -1.00193106e-01, -6.90415129e-02, 5.68396822e-02, -1.68351661e-02, 6.46329522e-02, 2.80493312e-02, -1.08832307e-01, -6.19345382e-02, -9.10689980e-02, 9.65389609e-02, 7.63785914e-02, -2.57860534e-02, 4.91360575e-02, -4.97100875e-02, -8.56811106e-02, -2.52757259e-02, -2.71540973e-02, -5.75237647e-02, -1.16036341e-01, -6.00292459e-02, -2.84934007e-02, 1.14114955e-01, -1.88581124e-02, -3.71694304e-02, -7.80091155e-03, 1.16838943e-02, -4.46468890e-02, 4.36545815e-03, -1.14368089e-02, -5.50198853e-02, 5.10513177e-03, 8.78436118e-03, -5.00882529e-02, 7.87240081e-03, 5.46993203e-02, -1.03326654e-02, -1.03318011e-02, 3.24999392e-02, 7.49744149e-03, 9.41789337e-03, 1.43696731e-02, 1.01433299e-01, 1.25389770e-01, 4.62685712e-02, 1.11985020e-03, -2.53651273e-02, 3.81497666e-02, -6.45012781e-02, 7.69529119e-02, 1.33082550e-02, 4.17647418e-03, -6.84586689e-02, -2.42532287e-02, 1.02305152e-02, -4.64955941e-02, 1.21805221e-02, -2.43216436e-02, -2.54741814e-02, -9.02561694e-02, 6.37715980e-02, -2.82467692e-03, 4.38267970e-03, -5.19851260e-02, -4.92296442e-02, -6.35127649e-02, 2.95224246e-02, 4.69965711e-02, -4.35001254e-02, 3.77914049e-02, 3.30836363e-02, 3.75474431e-02, -3.00023984e-02, -6.04988858e-02, -8.88113678e-02, -8.51549022e-03, 1.05011901e-02, -2.16445196e-02, 1.90707799e-02, 2.80461796e-02, 4.54835109e-02, 2.60706805e-02, 3.52681875e-02, 5.21399491e-02, -3.09991799e-02, -2.15597060e-02, -1.05231911e-01, -3.22738886e-02, 6.66445941e-02, 2.56166104e-02, -2.07904028e-03, -6.74166065e-03, 1.11027479e-01, -5.29140607e-02, 7.81761780e-02, 5.07971086e-02, 6.32716492e-02, 1.01620115e-01, 1.04750609e-02, 3.75356264e-02, -4.74906228e-02, -7.05045788e-03, 1.74609870e-02, -9.12987366e-02, 3.41675547e-03, 7.46937394e-02, 2.19010472e-01, 9.32006314e-02, 4.37429585e-02, -8.09085444e-02, -9.77733210e-02, 7.78470784e-02, -3.68921980e-02, 8.96104872e-02, 